import numpy as np
import pandas as pd

class ExtraParams():
    def __init__(self):
        pass
    
    def to_numpy_array(self, data):
        if data is None:
            return None
        if isinstance(data, pd.Series):
            return data.to_numpy()
        return np.atleast_1d(data)

    def aou_gg(self, S, T, OXY):

        S = self.to_numpy_array(S)
        T = self.to_numpy_array(T)
        OXY = self.to_numpy_array(OXY)

        # Constants for Eqn of Garcia and Gordon 1992 in umol/kgsw
        A0 = 5.80871
        A1 = 3.20291
        A2 = 4.17887
        A3 = 5.10006
        A4 = -9.86643E-02
        A5 = 3.80369
        B0 = -7.01577E-03
        B1 = -7.70028E-03
        B2 = -1.13864E-02
        B3 = -9.51519E-03
        C0 = -2.75915E-07

        # Equation calculation
        Ts = np.log((298.15 - T) / (273.15 + T))
        lnC0 = (A0 + A1 * Ts + A2 * Ts**2 + A3 * Ts**3 + A4 * Ts**4 + A5 * Ts**5 +
                S * (B0 + B1 * Ts + B2 * Ts**2 + B3 * Ts**3) +
                C0 * S**2)

        c = np.exp(lnC0)
        c = c - OXY
        return c

    def mapminmax_apply(self, x1, x1_step1_xoffset, x1_step1_gain, x1_step1_ymin):
        y = x1 - x1_step1_xoffset[:, np.newaxis]
        y *= x1_step1_gain[:, np.newaxis]
        y += x1_step1_ymin
        return y

    def tansig_apply(self, n):
        return 2 / (1 + np.exp(-2 * n)) - 1

    def mapminmax_reverse(self, y, y1_step1_xoffset, y1_step1_gain, y1_step1_ymin):
        x = (y - y1_step1_ymin) / y1_step1_gain
        x += y1_step1_xoffset
        return x

    def alkali_nng2_vel13(self,LONGITUDE, LATITUDE, DPTH, THETA, SAL, NITRAT, PHSPHT, SILCAT, OXY):
        LONGITUDE = self.to_numpy_array(LONGITUDE)
        LATITUDE = self.to_numpy_array(LATITUDE)
        DPTH = self.to_numpy_array(DPTH)
        THETA = self.to_numpy_array(THETA)
        SAL = self.to_numpy_array(SAL)
        NITRAT = self.to_numpy_array(NITRAT)
        PHSPHT = self.to_numpy_array(PHSPHT)
        SILCAT = self.to_numpy_array(SILCAT)
        OXY = self.to_numpy_array(OXY)

        LONGITUDE = np.mod(LONGITUDE + 180, 360) - 180
        DPTH = -1 * DPTH

        x1 = np.vstack((LONGITUDE, LATITUDE, DPTH, THETA, SAL, NITRAT, PHSPHT, SILCAT, OXY))
        samples=x1.shape[1]

        # ===== NEURAL NETWORK CONSTANTS =====
        # Input 1
        x1_step1_xoffset = np.array([-179.988,-78.638,0,-2.18999374712659,32,0,0,0,0])
        x1_step1_gain = np.array([0.00555574074691379,0.0118597231940607,0.000266427808795185,0.0582080345370401,0.232207128758853,0.0396691353384097,0.112324926377178,0.00805941301515655,0.0019476093095725]).T
        x1_step1_ymin = -1
        # Layer 1
        b1 = np.array([-0.92409777024623218633,26.38817429377832724,57.950805996110737794,-56.291305529739737779,-82.132041633109579948,1.6645572528330363493,-5.2269197136311404961,-46.3809029608363943,36.703986856197793998,-5.0586227115039719138,5.0659031161226257822,-5.8084594929569766109,-101.80195755007419223,-11.480396410799986739,39.7412025338207755,-84.248055998779278752,45.489817845532023455,-173.38958319303867484,20.634217428673732542,-1.1701786336691295531,-111.01960201482185653,-7.6682904656909132157,-139.02188947007408615,-64.664840186397071875,-32.189870204459964498,2.8889804435221035916,-2.0435632413340933944,-77.296621333775888729,12.185866365698981184,-19.074051454297769936,-34.827628383474653617,-3.7205445207340503977,-4.4516363029425685127,-3.8578647810421178299,-30.176619537462105569,15.966197621395737727,-4.7294505681430800692,-61.675548977441955856,78.826492958597839333,107.38052104508098239,-25.764970874028211512,128.16606214837264588,-21.114106541519852556,-10.238766455560588398,-4.8115158199303857955,-20.905349430181573211,40.610915060270166066,4.5420828453359529675,18.65997273306744475,4.5690333138333301122,-45.331963370437385663,9.5873759436681353918,60.681208064689144521,-39.338531830053241833,2.7344676051406726636,26.872496764941416814,34.106195264069846473,92.710942322712412533,51.353186850530200047,-11.168674448774771335,-36.458228622094658533,-9.3462389215204701998,7.7601749120290195449,101.34221145658329988]).T
        IW1_1 = np.array([20.931836698419889586,72.747359066133228112,-89.684002394681755277,-13.016120982885313495,-49.853454363400921068,-59.505015300720835114,8.5718823699590380727,101.37769222326437557,47.553210855387206379,5.8296968322669489027,1.4600937992218341321,-1.288523091154225142,1.1830167005263727553,15.968264181783819566,-0.75757314808635844994,22.3954791785572489,3.6937689732280420962,10.587282878995806001,13.764696862323578586,-2.1138797674689548955,4.6364935346493583168,14.124927407237404253,26.608510949775535437,-2.3964116758292237641,40.836666509029484473,-3.1644436042264643127,4.0435200210759489892,5.1063060536691580182,-1.3471997328889266932,2.5256299132383768224,-3.8100312072829378707,6.6237508177425103995,6.4164258092724599791,-62.815363984667968111,1.6754902326389295997,-7.8969975596575867627,-1.3606103148529793412,-20.566262312592229478,-15.29784505497434921,33.763996694029216883,-12.433797492452312028,44.199080991550161457,-158.58881677673306854,21.592537554520635723,46.204380742360278589,-3.2915405626589371302,-1.7324644036061551677,0.47561529031071403395,-1.6051985715715777481,-0.57668377840614049035,-2.2990237210439548043,1.7149445306395483257,4.0515039281422202677,-1.0568555991748893597,-1.7570980930809909637,0.61267154361709652566,-0.18582298050982695714,-1.7831085120312455405,-0.67263133728440294146,-0.91319133801254348537,-3.3588172741586799219,0.47813969493332592053,-1.6730921241736993466,-15.006426965363704795,3.0698305451903245,-110.69998874942682221,-36.500815918934698345,68.971406270578555109,47.51388654578123294,0.58434747927572427972,12.196008572734431397,0.037942369568419606618,-7.0735580016212660226,10.699747841265740078,-14.513402721465714862,27.694991403164394228,69.313894402096039471,57.518790680227006362,-95.267041482982989464,10.561743983588456786,108.27932020012930536,0.016347251566432689091,0.81043563131820461898,-0.009032564129030563882,0.10746555222907776261,-1.1275716248288845112,1.8771822182132427148,-3.7875530848616594248,-0.32829422441073302652,-4.3161533546022301522,1.7617713141387645326,-0.59546980586343911668,0.18929427090193148842,1.8015482769053803302,0.62630222607603314167,0.95498069678058905563,3.122124362095447303,-0.45184202984170268591,1.6871962126632822354,0.15843372805944966331,2.9940652741824789196,-1.3309721698840695225,-6.0133017338635443849,-14.779594405059096829,-12.759029441569424534,22.688049753647973716,-1.3150893099512941387,-17.947770276516436638,-34.403544347308560702,-12.813442361536479197,39.151295008334720649,-4.3824371906834551638,-2.3493571970133291238,-28.392061412468859061,-121.36925414098826081,-1.8543652192549391344,-53.926933762703313846,-0.74399418001502426456,-3.9425391866267736063,1.3540093131698429652,-5.5248664126105317962,16.375069142594405491,-0.13256393455840778661,-17.124915402435757272,-6.9793753696334128733,1.8055506338523947818,0.71699205329212467586,-0.39686106528584635944,18.50240109169370939,3.0971670217390396829,-0.59320867408883692917,16.95114836437166872,7.2598564442596913437,-19.208584344697488433,36.857973685371803185,5.7198412889392802327,-0.61930515060159474494,-21.271191671996788841,-0.91892418139578335712,-1.6870830588515919324,11.302034311711100401,-97.53916448049787391,15.677013162358521825,-5.2134572489202382073,6.6604169783941973293,-8.5479854966996384746,12.473584895620314583,-21.500632298853826541,4.2494802360200889524,-17.673753541540786927,74.26867237969297264,-10.28275949581092874,-29.994069498497324844,-16.562676149124342828,-22.810682323727199616,-8.0168965394233779875,-59.690509763277326272,-34.197640447556615584,-37.678564844712852278,-90.183170613896592727,15.331181792774390971,-109.11600498117978475,-14.721131708802579041,2.8757247863981234559,-19.64776872006549624,12.423836116624682901,-28.243723766397234698,13.89798349100102115,8.4119249255482859695,47.101377243700191855,-20.2625781061340966,-0.21978085334347094437,2.7804958050549362092,-2.8867883678058339214,7.986870225709648885,-16.240403531332695763,1.8708689446353639063,-11.668079750412506002,0.48667403089699240448,10.254625400553583958,0.2400506133670565756,-36.140291937920331122,-89.932770363366500987,12.64390184845338716,-3.3433354144580591516,-26.298379866712444652,-70.438929760102837463,99.693546153059628523,-31.520406704109287688,-5.3495187188363555464,-2.6145322245418167739,-0.18204278479175736716,-3.1626688204966626472,1.5760117061135674454,-1.5026320122913552346,-9.3938740754270479982,0.63157320484629086987,-2.4785556413373277529,24.176659503006796115,-4.4983265051003744617,12.127896020419150602,-63.597200896887216004,-28.229193692478883548,-35.234347049223103454,-113.69735349263858382,3.5806893498417609045,8.912362775451740049,1.5016880061576971528,-1.9340596474850961783,5.0833310067896917417,-6.9952686384852365009,-15.589189007311734514,-1.1711611083994513116,-50.691993769147728699,-4.8065510100469497345,-25.287615343990143657,23.316464668171921204,-2.6088956283913602441,13.041101615754492116,41.728557110756092641,90.266578963239297195,94.493035331248250941,-191.05912521655361047,-28.238076284169057573,127.54673692012541153,-2.1771924781919054226,0.067726561580941146978,0.14338787220798443478,-1.339949216050258185,1.7163969686911912937,-2.6604507908781567238,8.1332666519249645631,4.924428410008625967,-6.5543165662320692633,-3.348678695354458501,-1.5680372794989216878,0.27307087376080829699,-1.3383775110607574188,-1.6316830295007656026,-1.1137232718215253069,-3.1728695971194045278,4.4088039309288369338,-0.49194132499217013699,-7.309504572505836073,-43.31342118992181156,-3.9101029285353905429,-41.935531636170310321,12.668771166114854765,11.314578743853489939,-26.646630741641800455,-19.436144754926317546,-36.04895816082451887,0.17075762835867189238,0.014027345096528512705,0.92026840024487210901,1.1629024371201595045,1.4537059957695026569,-0.33600277214988999441,13.404906309462404579,-1.556501509278013895,1.0079460234520201123,-1.5949357089908291485,-11.450522421659645289,-1.8261098750576072458,-60.774874307154910014,3.5961322639924921951,-44.549038349625298849,95.723761880580852335,-1.8415134910587422912,-55.003679961517839558,18.663397307125837443,31.24535662239003031,-74.377663591138812649,5.224894902417616116,-2.4909686293333694884,43.832853802707511193,12.402803960343991463,-0.080583794041493087001,-3.7744707899790359562,0.078510822640818267448,0.017599896031012505354,-0.42655199778095342911,-0.60171642832842986426,2.5608911774674925077,-0.95102968292959855212,-1.9698728179169531227,-1.535732350233014909,-2.613179188546156162,0.23548973072085691016,0.19388075590495346123,0.14491746671550229109,-1.2401949804008831624,1.10749843142199067,-0.39076456039187812408,-2.9546058416355829301,-1.1164266247292604639,-1.3996153086115672437,-0.0021811114934069432414,0.89001471636056028736,-0.49923401581239346125,-0.15043418392211763135,-0.59224986523620126722,1.4354796150072617333,-1.5173952036896125595,-0.51792999928986138691,-4.3506669188617292932,1.5489841199544107653,5.0780073751128966819,-1.5872474777123319889,0.75115843724637465506,-0.20050024121638218566,5.1492068471111629435,-37.76157113869709292,2.0918933715785645866,0.90277048068356768873,-7.2351321255080209838,-2.1274258477218332963,1.4545842409648657156,-14.119641303080230799,-9.5620849942754215789,-38.32161302522558799,44.185963714709288297,14.272752410898714714,-26.417920583525891232,-2.271445340655171119,5.6488521533890878601,1.0025482915596339861,-6.8334230337547658962,4.8338256451351915288,-3.2984129339671839354,-20.842669133544848847,14.930850795854235358,-5.7892375365939479082,-4.7203280842873436285,-9.4801736494313590953,-12.5383121134529123,-91.899681899191861589,119.49729723905733181,-8.8506169282838591528,17.417615709502236143,-9.270480473762559015,-80.150206669647431568,-2.5719540579845125983,-4.3822545378570838537,23.441163723925299678,22.448225342357130074,-45.10275635394135918,-34.394698210513851677,97.990939163145739599,22.508057477285255743,-15.765462977359492314,1.7966171747993613383,-0.53918908236103779696,12.588316036713390389,-2.5310434009716691328,8.1604819737426410597,-25.789368301320195087,117.29821756233035046,2.2913662361171791559,-0.62221732643226101978,-5.1845554095006445294,6.2578779560735222631,-14.037024227551505362,-15.221784276688309134,-12.15124779306130165,-23.13900137605473617,4.2401278882782253987,5.4630926287382406414,-12.731608082287982242,-4.7707826072334107437,1.6199816476366426521,-3.325710439626545778,-7.4045728952047635829,22.556680888497492532,-13.072652719424157297,140.00809231502253738,-14.845057180083005122,22.676762832061584163,-0.47514683781920086236,0.25841993000261515023,18.277720264118496374,4.3365484918040406725,-43.058181517998896481,-21.888717436559343099,-1.1961874190776082827,8.0423306880789873219,-42.933155452830639831,-0.14616201837677481046,-0.13430583680996491247,-0.58981810779848353743,-0.71234313233794721576,-0.94576172672030411892,0.40095990570557238364,-12.496784049940304229,1.7251821978929184898,-0.24967894825909500711,-0.24768523280850157642,0.15698129187492410042,0.51470036967696175534,-3.5907044804731915733,2.1884295523676278172,-1.6632000458679307986,-0.4796569588994863409,-0.1551399226053817304,-4.9294948989068645417,-2.7287453132180869986,-1.4544804591226099255,0.78968765102461080385,3.1593992730923847745,-10.27080607048321248,7.5282558208640262265,-18.919787185772346305,-1.1997044417960491813,-7.9324348973540814711,-0.020087316557315798571,-6.2878594589471665799,-0.15921673533184060867,0.10681151766899948941,-19.482753493295533076,0.69934990760267923271,49.178631799995962126,8.6011789732938730424,-24.467347038979184504,10.536820677021587755,-5.9592909099740429824,7.30325400524276791,1.6305850397821675113,5.6674242183504404125,-13.112738862153801023,10.989253391707725527,-9.6079139493042600151,5.3981239648009360366,-1.2545559504385883631,-3.9407187706378463687,1.7841191405416487736,-0.04438681516755454276,-0.97981273712928496078,-3.055180465761397457,23.726156440946237325,-1.7410736286568402331,-1.2352073951740332181,-0.257453927816034156,-0.12600631787855620658,-0.15152952823034240848,1.2682606267108031961,-0.90327763788350612373,0.40935227214098013349,2.9434569338747058609,1.2958013233750498294,1.3485015078932933719,-2.8665527530112719923,-1.3469220643383554847,19.330563091396506081,-2.8084686040403927798,-20.837720313089857171,-2.4974630678810574302,-36.584511795294567094,-3.8823807714410580871,-29.935667863248351495,0.10500910940206639732,-1.8106148357266489413,-0.40274154876443618578,1.7744865512378684702,-0.10964838999231654726,2.4627956007507569858,5.4312246325547528514,-1.4946522692455372905,7.6143918559162928617,-17.524868537409059144,11.473587900867251221,-11.036495448527585239,13.848070543445940572,-68.275216891499823646,-26.95760708264942096,109.01583773742814287,15.377994621498990213,-31.770041826665824658,19.813957303264988496,-9.3539902595288513254,-15.474285874612549563,128.6624990280520251,-23.000347605868732614,129.75052280517553527,-184.61765106751099097,33.880235359246285043,95.366806157373488873,0.078401684752462688643,0.67125884757461906638,-3.4743703111094768055,5.0123440342991605334,3.961959600100572132,1.7965254711798910314,-5.4130896718341316998,4.6148080101037374234,2.7399910773318492119,0.67343729995913803599,-5.8064196051826186817,-2.156750128397398214,8.9472790411652223241,-26.48537336098555528,0.15778432423606658652,26.979468755386175616,-1.4477456026390456145,21.398770566964834927,19.260810759927970537,-114.51009442605032973,151.49555349226625367,43.325807586911970759,-63.851746588941395544,-126.06888223803258597,-53.498381454766942511,34.911387025219156044,-84.961824825503029501,19.540824835262984749,127.21152586406716978,-48.698541836292228879,105.99899513680173868,-91.611070019413659793,109.50365795113788181,44.952205352582467413,-25.630905529833334811,142.13678596912572516,2.8687917746736992797,2.1017964103411048704,0.64796848979679955161,3.1316218297456179798,8.8276278554390223974,-3.3465549234700460168,49.548364566834813161,-1.4167441180605313544,8.2104268366796162582,3.793719655147063996,-7.403383512684560408,-0.50729720905347186477,-3.0100811191782965714,11.389088713257267571,-6.5393939743041897827,8.8224831378762136325,1.0427688002066073381,-13.409485951237973822,-0.62697453496196120515,2.9744746187688848593,2.6558382984735904309,6.7255629796099061224,-14.671284399044981939,0.32956892820937788713,-54.585823382721201824,8.388313461119468073,6.70872018318471941,15.966360617271179834,2.4409881451986668033,28.622718596349749021,13.210462588859694932,-19.192201244219699419,37.104751522946713749,-45.229959593844732524,-26.079161591334976578,34.723500085622788447,5.3534276287246793657,2.6119345039259984631,0.17796061719564765236,3.1590891186620031483,-1.5197378601592319569,1.4997186010928065247,9.4753137105400959683,-0.64083826946580935147,2.5090832835909147036,0.3209390106003625065,16.04671332887873092,0.9731338277845179574,53.331329418804251929,-2.8345584896813305065,48.805815360403215664,38.412861999628738374,-3.7889178898026494302,84.390424788465665529]).reshape(64,9)
        # Layer 2
        b2 = 0.30259117335102253543
        LW2_1 = np.array([-0.0010971721057184389853,0.0083962246462983558537,-0.0027307629311519908757,0.0047120975772234497542,0.0021490591706695900444,0.080023017553646214051,2.5403240847166892458,-0.00074869403897206054845,-0.0017733637883615511934,-0.1595408196098820619,2.5458116184369377066,-0.004811520537812731535,0.0010863185703986527521,-0.0072937864033696415272,0.0029400955774635255564,-0.0024996059667202401126,-0.0023702866186851839075,0.0014195436572453502648,-0.0030939630859683439103,-0.016508118056806648372,-0.0015877051983461973415,-3.2224771976829793552,0.0016592626149794943019,-0.0041771451524016114595,-0.00099316165197425670084,-0.010980007358198231454,-0.081321183662134241543,0.00092156500812220305471,0.13321547062925354066,0.018882273589591935803,0.00090447353143817594851,-0.082209264930844183628,-0.76256777106001749633,0.16070425316996186926,-0.044072375853990868044,0.0012062660007474501709,0.0071363243742063519823,0.0012545007649656428859,-0.0017921228123160056356,0.0040542203402466276199,-0.0023157050835605100074,-0.0043400258937529752334,0.0019445559102905661704,0.13490895461397242605,0.048727434125739772786,0.0061903952558800337536,0.0045627361625012663113,-0.0024619138003385233546,-0.058857286292253396809,-0.70263178253066527201,-0.0032593428520068593035,-0.021764108480870965334,-0.0019231326569150186158,-0.0014740033825958534248,0.020248678060316771532,-0.0038159206545389273875,0.00036217485798284687051,-0.0014429413334346081511,-0.0094053482098095074482,-0.18730162255769791657,-0.0047594464035936425231,0.0018832467739314864841,-3.2268167121976776279,-0.0022594723102877527394]).T
        # Output 1
        y1_step1_xoffset = 1506.14754098361
        y1_step1_gain = 0.00175936863902286
        y1_step1_ymin = -1

        # Neural network computation
        # MapMinmax Apply
        xp1 = self.mapminmax_apply(x1, x1_step1_xoffset, x1_step1_gain, x1_step1_ymin)
        # Layer 1
        a1 = self.tansig_apply(np.tile(b1, (samples,1)).T + np.dot(IW1_1, xp1))
        # Layer 2
        a2 = np.tile(b2, (samples,1)).T + np.dot(LW2_1, a1)
        # Output
        y1 = self.mapminmax_reverse(a2, y1_step1_xoffset, y1_step1_gain, y1_step1_ymin)

        # Adjust y1 based on SAL
        y1 = y1 * SAL / 35

        return y1.T
    
    def alkali_nngv2_bro19(self, LONGITUDE, LATITUDE, DPTH, THETA, SAL, NITRAT, PHSPHT, SILCAT, OXY):
        '''
        Example of use of the neural networks:
        AT_values=Neural_network_object(data_inputs), %This code line must be written in the command window.
        AT_values: row vector with computed values of AT by the neural network used. The size is equal to that of datainputs
        data_inputs: 2D matrix. Size must be 10 rows by n columns. Where n is the number of samples where AT will be computed. Each row is a variable and each column is a sample. The order of the variables has to be the following:

        1: latitude,
        2: clon, 
        3: slon, 
        4: depth, 
        5: potential temperature, 
        6: salinity, 
        7: phosphate, 
        8: nitrate, 
        9: silicate, 
        10: oxygen,

        The units must be: latitude and longitude in [-90º:90º] and [-180º:180º] format, depth in m, potential temperature in ºC, and nutrients and oxygen in umol/kg.'''
        
        LONGITUDE = self.to_numpy_array(LONGITUDE)
        LATITUDE = self.to_numpy_array(LATITUDE)
        DPTH = self.to_numpy_array(DPTH)
        THETA = self.to_numpy_array(THETA)
        SAL = self.to_numpy_array(SAL)
        NITRAT = self.to_numpy_array(NITRAT)
        PHSPHT = self.to_numpy_array(PHSPHT)
        SILCAT = self.to_numpy_array(SILCAT)
        OXY = self.to_numpy_array(OXY)

        cosLON = np.cos(np.deg2rad(LONGITUDE))
        sinLON = np.sin(np.deg2rad(LONGITUDE))

        DPTH = -1 * DPTH

        x1 = np.vstack((LATITUDE, cosLON, sinLON, DPTH, THETA, SAL, PHSPHT, NITRAT, SILCAT, OXY))
        samples=x1.shape[1]

        # Input 1
        x1_step1_xoffset = np.array([-75.95,-1,-1,0,-2.174,11.29,-0.03,-0.9,-0.1386,0.3])
        x1_step1_gain = np.array([0.0120518228382043,1,1.00000000007615,0.000296912114014252,0.0582326393943806,0.06821049759558,0.571249036017252,0.0424052243236367,0.00826143816767911,0.00416927246195539]).T
        x1_step1_ymin = -1
        # Layer 1
        b1 = np.array([1.1672697163170973056,-0.57699133175556205355,-3.339627622517827632,1.8643700783890064798,-0.76888937938239532155,-1.848134215104946465,1.5107330762869830565,-1.1708525904139213125,4.2717514124138524778,1.0604339464360654777,-0.43066944519607441855,3.2172217206224860142,-0.7283601957947674066,-0.3260567919727209163,1.3643980795985741761,1.4555536479518049742,1.1594162072369136318,3.8661125697839779924,-2.0289236730051998236,2.3335691883814084768,0.68280786414768079862,4.4978024871194453027,1.1121211420998640129,-4.4276583143490970684,-0.56305316879623867887,1.7963133559752617607,-1.8345310925294573412,-0.81043050674411032386,-0.19490167659854334969,-1.4981763441203135301,1.8993142206121584881,-0.23044422622461824268,3.0303880526612414492,-0.21865294565845871944,1.7872014242086029512,0.57301438582733466021,1.9167923788626788362,-0.10083534443780840795,0.62354895894007866808,1.4975249712315070738,0.39336210504703961188,-1.3280132269134143908,0.3515166197814393878,-1.0167299805516072375,-2.4460432683959321132,1.7525207081189424496,-0.80411038121666345013,2.1228077876822402104,-1.0928151753610138019,1.7132633094877838253,1.9760095216278683594,-4.8597265459625056394,1.037087428063784289,-0.028455748792265742053,0.15477250137368039895,-0.59515421888397779249,1.8749644892754455672,-2.1926521092009205738,1.3477918071707561953,0.71216834622748337313,-0.19175045649022476324,0.71338164821226546231,-0.27569773773688494023,-1.025883289492971473,-1.0524798142838229786,-0.13497147079627394572,-1.4547444628275991718,-0.0006769143719951159488,-0.20607776488902326828,1.5557086688135095542,-0.25530979134825493304,0.73194084167462980517,1.005218001195429478,-0.028852293640610000153,3.5892439889392466768,-1.6258748233045747789,-1.5286613152498917945,0.53800985535374856727,-1.5232438974038020607,-1.7635180651055806234,0.18230495718627104385,0.45733188348441278226,0.15946355169892462156,-0.59891954910461664419,-0.40384337296743622048,0.74903510740081624686,-1.0139401668960612568,-1.7043589022142102696,-0.18530292941450038358,0.54768706379044640453,0.20205737355209210659,-1.3314893011496959918,-1.0877473034678142305,-0.65394431575357336861,-1.3451262544941771093,2.5155972616522919161,4.7573336666020447083,1.9746800883322246367,-2.6436250331947337422,2.4701259241289492685,2.6900885085631434102,2.1504203160916772752,3.5778706675084408495,-1.3054333710178354089,3.5314152230560158507,-0.10644674629201268667,2.005665927641409052,-0.48177114195185433143,0.69912726269383151934,1.662014432771131478,-3.6633406023855994427,0.15039281119220801464,-1.1556768457657728977,0.32975423558136313096,4.3751388625601652649,-0.39413994485647307897,1.0706268616080851785,2.6741819077416715267,5.2019088894753364727,-3.1642382608820347478,4.304630522923378777,3.1374722913163632931,-3.3980019703747319504,-3.0036254504103800933,-1.4171961486591626578,1.1327685035848353845,-2.5659129202168542427,1.2673889428988722727]).T
        IW1_1 = np.array([-0.84909521123793341157,-0.82246813002760954525,0.072185755790166700185,-2.41145095168202106,-1.7521776209509940525,-2.2101573037122084209,-0.52084893147720245921,1.1364823422744012582,2.0510776277505535781,-3.0861099512826979385,1.902762818332933481,1.6195264493504695213,-0.19038024334434514029,0.42541655058280131163,2.850219121994149063,0.71857902004940910068,-0.10663316716843083964,1.3441957584598829278,0.89052401198906505631,-1.4743102052090313325,2.1843405010487266793,0.81270228459402704679,0.94783158797499666992,-1.9671965535866695607,0.21247995645959286137,0.25910368705593350702,0.63619015146997970334,1.1161962427293066202,1.1677450482458768821,-0.81699717617137135317,-2.1473491116620606611,-0.96968856310513107388,-0.63549367526637412507,0.15856913451396539849,-0.85234473700733937029,0.3610213522857016466,1.3918796192858200467,0.5756570164931555933,1.8180413787657463409,0.7081720939640804291,1.0627183677496194747,-1.9633019311037842591,0.82512418562156708557,-0.77468622602152337198,1.1171652074426012824,-2.2365783184573464482,-0.26731174367370835743,1.258841076115436497,-0.60495979895094276202,0.031172659867790629418,1.2219915369214642276,-0.50665828424483583259,-1.3181124879626462398,1.0106564933728718891,2.5620734052206732834,0.38848188088815188701,-0.24185225878085800377,-1.8139977030984661965,1.0727447537240191178,-0.20409036607731217972,-1.1707249214467727594,0.25026669717891475431,-0.024511938361889910876,-1.4895338895506085031,-1.2417483981534140902,-0.48328233529199843277,2.7524358164099083091,-0.66687535031169953292,-1.3841965016414812251,2.5724500778823538027,0.88130163861871968489,-2.4443962846815034951,0.20781077175744508412,0.12585820219525004071,1.3478800126244521174,1.7315911376791068843,-0.17018105220484713858,0.43264422355077164495,0.2772883504831497592,-0.033701816233024955993,-1.0217179218620862091,1.4184695210415447786,1.0822874966606432778,-1.0961300883667262074,0.90301884382045172206,-1.9358331733188691715,-0.0054653844688727706846,0.50911301382593210363,-2.634351016991271166,0.15498003806777432834,-0.80638605023936094085,1.2501953153303864141,-1.1497587537164919436,-0.79985040723176659139,-0.0058291975345579200019,1.4831668678193072886,-1.1628300943678078205,2.8293612176234104183,0.61432503627944756719,0.049826036790338791571,0.24473431674850040785,0.12198898598186173892,0.10809771717325025731,0.48802467210700534173,-2.126887520782807961,-2.1097782453381825896,0.13024310909083716692,-0.027972781042766518139,-0.035648832658415334496,0.22741981437429328872,-1.6757718637080709634,0.63925499646645655982,1.0060619079554495858,1.189861010031392885,0.052762256297588759624,-2.8860324254323326265,0.28846529978764429147,0.2610988886571901646,-1.0898641191170574949,-0.61870488595778494467,-0.46685609727085075615,-0.2469805968216234604,0.5737215329077414161,1.5780528609943214047,0.30508305276211644674,4.197771382551418462,1.0247542936535283253,0.39361838720946740189,-1.7756936951880464282,2.6975155979609612977,0.89804687960922857659,-0.77911032910274291563,-1.3247219813240465047,-0.59945960238195850067,0.031788563401640060335,-1.0381499637503082134,0.42385409068673640665,-0.9136433835725359387,1.0834073208545771383,0.44958105754771249263,-0.33337882131827301091,0.14502031822637251324,-0.51420601485893391303,-0.64279723036992442164,1.8531483193214826066,0.010777852133900979806,-1.2315815365441034057,1.2238148869943683561,-0.098416293914804317544,-0.15006361395396103364,0.18230135620575396715,0.66778829443480680617,-0.24842901177008025471,-0.32893858537230863393,-0.86305170611435144679,-1.8592950450985126221,2.1578905063770825734,-2.7292983051514352333,-0.68878787001952801461,1.1566209169599181994,-1.0738765824996610032,-1.3473730931700185209,0.32273881224884809482,-1.7160081065078389706,-0.031802968029362221891,-1.0920141457184280309,-2.8402317135045280772,-0.38819353587603744327,-0.78714127779570697285,-0.48212422620358735825,-2.0843036034952064917,-0.5366189318067776659,-1.0462465661411228801,-0.40321767480005632489,0.51117145286027354523,-1.1452638350017012581,-2.0821127105870664842,-1.4600079349190122624,-2.2186544881695784426,0.89476702348336722981,0.37712109154590001125,-0.88326256786283885436,-0.06986595926960426084,0.19728623394385602641,-1.211187472037124957,1.8405531800812695575,-0.20422948427519116432,-0.55252915452994966206,0.73829875445891623986,-0.92998936184821134887,0.51622533945359072582,1.8900540603040973942,-0.67199618820620199422,-1.5867579919004028977,-0.30112052900020669366,-1.4727902967435106962,-1.8578698790828811482,2.0829520176882247995,-0.32758882891400220583,-0.37315877951884185437,-1.6011494674682971162,-2.0454105944639993098,-0.68124122256328534242,-1.7449237853657464381,0.87528671056055251665,0.19200389383003535482,-0.010203027721664710559,1.5013643162338758952,1.8140760903187871378,1.8103026770370451715,-0.50421632731905119407,-0.209285170784525687,0.26428609345133846631,0.30533778171529468715,0.74345465128455401338,3.4468620101774543052,-0.75332928365360851686,1.2744013219586232122,2.0846644379769774247,-0.34154434317535847798,0.17686088649641151793,1.7508407556610909861,2.6936909085834677136,-1.1619106978904791827,0.81668815604666922248,0.21976131996045542016,-0.59808007596018253338,1.2751483985755382999,0.83262267333253492385,-0.7832018362152266544,0.93078561042758445332,0.119771160568741597,-0.4635937120924517596,0.27638820358200644201,-2.3399055570316393826,3.275405694579272442,0.9251609568839133102,-1.1879276321725780186,0.18016477092994598319,-0.79469464775927423084,-2.1323826188236005841,-2.0979459876457062784,1.9449552763661324128,-0.1656887639138146795,0.59191407438417165121,-1.1671220022430242036,0.76789232565618981141,0.42227553705004150508,-0.57400021694982339415,1.9211521420782136094,0.38301510898918400549,0.38712124285104199117,-0.10085554369651129891,0.11238835327144078291,-1.1397830528288892538,-0.75614600530116415911,0.30280346307033906283,0.59725333696358062774,0.093471180619360591524,-0.27177894070931862824,-0.62199336018030759732,-2.9185881347586537515,0.91551929189419267718,0.29530445027154478277,-0.15527508957053887118,0.81614660272515870965,-2.3944306957592749185,-0.37461969763985991655,3.5651024177197316867,-0.19293294955013132186,1.3617903322119366827,0.31662367760199899847,-1.8202944053830389937,0.91242537950583479933,-0.5840736016345438042,0.54714332007405108715,-0.60822734437774783611,-1.4066370109706014535,-1.1939678434268863327,-0.17393673252549440855,1.8801010350873734733,-0.79423413198352244002,0.090672600066727768175,1.0482637416730569146,-0.16366980298508493341,0.032201551471721434616,0.43555643988602066319,0.85190509469591824132,0.27235700860080586105,-0.16202042635367472356,0.68310270440666520653,-0.84526835596310323506,1.7725794981089173508,-0.89311668300824298417,0.84921051588974627577,0.49145674609456435622,-0.62603468236588710738,-1.3294744116739296569,0.84171901487632538874,-1.1460808920616682993,-0.88497595513682558721,-1.0006130956008165711,0.30072041254779380282,-2.1321626377455227264,-1.4300882958182596916,-0.16885447262826855375,-0.081971485890773868044,-1.8378953382206157929,-1.8495077219142335156,1.3736205366597380451,-0.44687187029658431703,0.7707801162414815721,0.22911717780837087544,-0.81245660167152122799,-0.93806483168983190168,0.36128524224335384352,-0.64439538714757516047,-0.5060222319365742516,-0.52142163896988669158,0.55801627984934232263,0.73508683029676802345,-0.37148424467923107928,0.97983386843389397303,-0.38496027163052531916,3.4826821098951565858,2.3750066576485089342,-0.53537048281962951179,0.57445763530438997968,-1.2832832918216625639,-1.3594641524570321156,-0.66422527624235849775,-1.2184946207458751122,0.61768199349130914477,0.18725946496054077239,-0.86630589776004029989,0.90408800167409142379,-2.9544813652855999031,0.55636454666060708441,1.2545645671828875578,2.2919934213984736182,-2.0776876218331898905,2.0151590940515529127,0.56777608657813083415,-1.067583887385072261,-1.7684781151633668372,0.16763207143528913168,-2.3253348517963643438,2.6565684828732090139,0.16695224525715113284,0.44882711184803908422,0.079348595234915469954,1.0663814648474558844,0.5896821258645033037,0.12376310949134722295,1.6424527770121128967,3.0961101725882156366,-0.30412555881040764794,-0.72897538080632962032,1.3581656517583313715,0.054212824435505124754,0.087960475265825371904,0.47235744222428843742,-2.245115766410930469,0.17782051062363268823,2.0758026415679631249,-1.6748539679169602845,1.0426239847181015818,0.65764955404365488256,0.19907907648300310344,0.39341186457676857735,-2.8980055906771484686,0.55327032460265956892,-1.269967249928575459,0.35590360667402481942,-1.2679431057155936546,-0.36821591834699313184,0.23997439396761127695,-1.2481378430720060368,1.1844071362395554026,-1.4746144041549902326,-1.5455707053428078268,0.66798197542572368413,-0.082310436157723460004,2.517256954923128287,-1.8375762410728275764,-0.45400632665805645827,0.61029949801086458283,-0.18963135272489384242,1.6599281414818485292,-0.17394230833300741712,-2.443900193558460554,-1.10348358256625656,-0.38518985301042246716,-0.1868064228069972188,-2.0410025531802333809,-1.1566240948626176355,0.56773781883746643473,0.56237833343870680114,1.0815296983052142821,0.35901980416296475074,-0.34348889761926804098,-1.2428312178367848517,-0.52766828428755685465,1.0415095440050343711,-0.01717071760342377823,2.6597930386559327509,0.2752826239114677942,0.39371002502968382997,1.7632954431662859474,1.7995106695962441723,0.059253525676394830368,-0.0043860868926615453542,-0.21699198570955735565,-0.22080325259220864864,0.51748608854030275772,-2.0034128084385898205,0.6313222589860891798,-0.92880561049692655917,-1.2746549575104180185,0.63657526373654560459,-2.8221146706723927444,-1.8894536541951256758,-1.9945049212180840925,0.22271349498057121941,-0.22744069609867581527,-0.64803374434069727084,-0.21478927098850703059,-0.40475810510842968881,1.6418054656773801714,-1.3799322842094772223,0.62044096788231795081,-1.0978166830373863316,-0.39056111868899601181,-0.75247039328135545411,-1.1652103249720640044,0.53998169159098829972,-0.75240495685738972842,0.85592567783134931858,-1.1673206166228689007,1.3959559094397804291,0.71321534492415172846,0.049658820504419970421,-0.39014766644791704087,0.15596629480108259447,-1.2419159345365184954,0.99893376319397098051,1.1633525384939955583,-0.84922982348188180701,0.25472190214715456635,-0.17008630134415506086,-4.561486954258668014,-0.36734049460590517677,-0.11130895277155949952,-1.1509431090382868934,0.34131421483315416143,-0.24213773124188212038,-2.0457542574011760017,0.25413085259988960063,-0.95104992055398240858,0.74169385838110790665,-0.43923778381981276597,-1.1997960788993993209,-1.8274287292810331707,-0.4669137094677435762,1.9259036135375460219,0.22380377240806423322,-0.29806681720202055086,1.80174370743712986,-0.047563238342893006394,-1.2075364706561251271,-0.054585774066776719671,-0.39455216254254898978,0.75621294827610385791,0.48670181431574183195,0.24183540828358623953,-3.4160071752133589484,-0.22527723193922422062,-0.017547772459470263595,0.42941259092685540866,0.24004800498928868802,-1.3576888574896048834,-1.9961769450208999288,-1.9487072852401525758,0.7581457722209106187,-1.0180131655729842688,-1.2481887419843336051,-1.0042962792764256186,1.1731613199201293973,0.65338851073273895853,0.33463027705152487146,-1.1309821105948245634,-1.6410665574082494711,-0.51727245502745011763,0.21491740479341567283,0.11958993301324523373,-0.55103378736702335328,0.28763492131284895681,1.6542881243932761048,-0.92216933584268157009,-0.48733106938429704424,-2.2923115054908014265,1.8717113235612099498,0.66573222698990386359,1.7865991159220537821,-0.069197693970177193146,-0.44287534258291216815,-1.0594043965465853585,2.1600786409824666023,-0.59257088517830380781,-1.7915841820004518858,-3.9359879845401217757,1.0145771397777052503,-0.34881857338704597149,1.153349576603643456,0.2983766582984591631,1.3253796171601126552,1.6747216526829546979,2.4538158852881273297,-0.24690572449887526751,-0.60439996315938071536,-0.029578916396713107045,-0.072809763910068700521,-0.27412973502497378631,0.1351155352729255521,-0.16388565353898212895,-3.1347809774573143216,0.069022584631771757846,0.14244828397808159681,0.38555948217104457632,-0.12519074801894669591,1.1695992446960303823,-0.39605282297268518121,-0.81571083867251559241,0.82921010761982494319,-0.67460450518560344246,-0.43666725887956331364,0.1498162058479652059,-0.10513277418349861736,-1.2019980097446394396,-0.76539467735331423448,-0.85976988191066117118,0.13003070273067135476,0.38466331367158529408,-0.55593728705423572922,1.7889955285606458091,3.1522123512855659833,-0.96494672180842555598,1.8414474247281975572,0.62382863207283767437,0.71616668659579374445,0.4061681512966522356,-2.078414258995922026,-1.9693443678705091493,-0.74558308724529509526,-2.1089756669087180718,0.45691133440894105,0.31049452329881904733,-0.48230631117506850281,1.2599273531454380226,-2.7610872756658753069,0.66156884179593544726,-0.034790018452869268806,-0.20777108949243994207,-0.51464559231428508301,-0.19745076847776951712,-3.6112648864825005468,0.29523450836526760055,-0.67582672883294059307,-0.19598539147740726141,0.40449238603172360529,-0.93764472947428278982,-0.6065246093696413654,-0.82567985627687157102,2.4425472628033846334,1.1891425372862092225,6.1215340462425968937,-0.16324029972136397393,-2.9720600075401515383,1.330711897386128939,0.33375131805694546738,-0.17290193446366119989,0.96201995359481085046,-0.058035868176232859039,0.5215599669538989458,-0.015790242417836934663,-3.9014231687754672429,-0.31250616675000347788,-0.19157702430282794182,0.010501835032071481918,0.99772527430202295751,-0.27474951318251439325,-1.4545637709906329427,-2.002281709824676792,1.284456575565407821,-0.31970620294939244843,0.25629997204214011175,0.72234940154210325325,-0.77849155085113974639,0.78816468656531102344,-0.79693447858702703979,1.0231969120232835557,1.1082522733635484791,0.49440664428691422083,0.82007090034204255247,0.14958306606832080798,-0.45870385050103268387,-2.46596016328847778,1.2025109289198092632,0.56282031252236930374,-2.2422886719341117434,1.5792177882458087179,0.44285141862964255699,-2.3557868347660417818,1.1928844737676425058,-1.2846875357361988712,-3.2121389314316757257,-1.366291370550594575,-1.8216951903318354677,-1.7245268757796041736,-1.1530740790817832764,-1.4894306692573562323,1.6874175611785113826,1.0227274290112566835,0.6187338986957329201,1.9775112591210080026,-0.85010511580396419529,-0.20255009527383727175,0.051690867904432738489,0.84826131137780147462,-1.7071073380347114856,-0.075559060380265885559,1.2269675783481710507,1.3068496758507766042,1.4785098308323110228,-1.0803989031639202878,0.63243478477584702535,0.9158393598270566649,-1.5154525189098955185,-1.7201125254995410785,-0.70271250716438982131,-0.85536587951825315823,0.095837860635593283276,0.22083200871422975498,0.57176030561189616908,0.37526520391159756684,2.4394714911801811397,-0.14270021551650516334,0.71276805610625093568,0.37018293795154211256,-0.47610885805914210378,-0.045912698974113541617,-0.021604944026653929989,0.028952559442711984367,-0.030688469601433312345,-0.12568581486727645191,0.69212055150152440586,0.095046611102377817626,0.082946952841223026143,-0.11851824674049345199,0.089802030510465161162,1.2446099382336701655,-0.83012263043277334518,0.86163604734022536391,1.3080152761047767473,-0.39383860820087163157,1.7453115127468616929,-0.74930425249933985121,0.86606310881794590362,-0.2101282200971751335,0.028954341689911324009,0.46970370734799404833,0.89229772490614733815,0.65350409698824496463,0.91427617573825570307,-1.4368049373240301403,-3.2509140567937051536,-1.0511626408968799407,0.46564108301753009966,-0.29590618539700919154,-0.14724818389941385366,0.78760345180651891717,-0.84468145961320906245,-0.068500983625568195867,0.62655372553967569882,0.87003243512559647055,-2.7093534358433930542,-1.7084990786648481809,1.5382815627094568178,-0.162679075464006756,-0.9655939041630823283,0.50286487665131140989,0.82851234779334415048,-1.5283680630028886327,1.8643703100977893072,-2.6894750495958263947,-4.1781808914558329349,1.2693322780448723641,-1.8864116846289897822,-0.05784394922816050999,-0.35132901768291230349,-0.9068437189523430586,0.16570710815086142631,-0.2336774420097129934,0.26740585105779757225,-1.4398800875345749706,-2.2583251614371429028,-0.73366711350603419639,0.27504995986596908475,-0.22168480943114363124,-0.47810192221828323733,-0.3650326487725910618,-0.0032627317761099684443,0.3658095683222946648,-0.13326903889725827401,0.94459509766772842276,1.3667167867943388337,-0.72548525690147713796,0.29341525871422491356,-0.12451474390653929913,0.079589465560891289875,3.6214718279481736829,-1.5412175013093174503,1.2300471395878360692,1.767958899213099011,-2.5120762860870762267,0.37488459641422450241,-0.47345210273163701453,-0.41002440409022439249,-0.2676078601521957312,0.55955209448809917205,-1.0517534674702053721,0.58781896716320969354,-0.33415460056591900218,0.58223937817564075381,0.87686778563746714532,0.29866050355898809965,0.81379790813416241768,0.2113658183122293921,0.28743587376974011338,-0.86461587382996929474,0.60047290113330265005,2.161228810056713634,-1.2492877003200573149,0.55940222172191145233,-1.2715487009495227699,-5.7969832269360903609,-1.4829927261193120991,-0.33845509332227408095,0.99624595894892920001,0.27354839018073245915,0.20428334653078117356,-0.97404944873980303655,-0.20324220031623232985,-1.0820056266883855134,-1.2362673650711277773,2.0358678343929295096,4.210846613306584274,-1.9525162483473639252,-1.6133063509202545394,0.6176643651963414916,-0.011767500458511047021,-0.77036688781640005885,-0.68027570173517681873,-1.0545258000230339768,-0.62890156616333925399,0.65152084902580431613,-0.95637374795101881553,1.4517767398425767134,0.47162419402423216841,-0.85869973871661564591,0.25602096465343798792,0.46258259006198665375,-0.71545319147482555611,-0.61952152957362927044,0.17389871024477926431,-0.749120163023899166,-0.59466385216958794757,0.59353280254865148358,-0.38344032533738375834,-0.558578723204491423,-0.13749268986263926684,-0.7907788224405647437,0.12079248990085561521,0.76502996976798087747,-0.62778391646572262452,0.84608958385761390275,-1.632956904201125381,1.3195053156087581669,0.55890347106928972565,-2.149706290792927188,-0.42933206553423419738,0.34709438828474586947,0.23482248030240090997,0.037821701173306722377,-0.15292753379895909771,3.6880442259501982072,1.192839264951476963,-1.0825334680662048736,0.19165326648696442979,0.7027538328593178063,2.4396713300502210764,-3.0983530389091571422,1.5654692952739299727,-0.76219492228757534935,-0.49296759816572510715,-0.4096964280951571058,-2.3537106116350909879,-1.163419519261796875,1.9815909398304696332,0.1639285219858574727,2.852800495993526475,-0.0027090601931140179462,0.79168503098535969453,-1.9706590681622482286,-2.1177741772595091163,-0.94176068097768039777,0.46260643146754493182,-2.0708937355580170347,0.60108985404113313145,-3.2239138642562865655,0.65709291958464433048,-0.50753249197640570856,-0.94549197060767153911,-2.4392880877738600809,0.69395809674849540105,0.34119350019341188052,2.1204899112603516897,-2.6372548846739154449,-0.54140548197911053663,1.3646574607374539756,-1.2745975599802374933,0.16929361485627358874,1.77936967645515276,-0.8847166007871136717,-0.45794094959688602664,-1.2588785243824018867,-0.62565844064779108091,1.0906396019000195174,0.19764161655419418273,0.085880049902789495908,0.028520734168197860864,-0.75381357957307693063,-0.9908263417519470595,-1.8479055647359428072,-0.21016027613372662008,1.3409944150322981038,-0.33150654305190574433,-1.3083270273552998209,2.4458716538737745871,2.5800110136367804259,0.84796432120492182261,-0.1372983535781778508,0.23845070051073766204,-0.28791138308216374098,1.4586067282483119456,1.3696516875391757662,0.67870534141143301632,-0.2665155956558905026,0.30357646889116851607,0.42603387490640087787,0.67183342633147169476,-0.066983347240707591386,0.062733268348084111898,0.231648629237925896,-2.794562829696488393,-1.1157097409223977191,-1.0201934747602858788,-0.069956645434457787047,0.05511596039721373963,-2.458174111218891067,-1.2652093952404892541,0.71674717687566924518,0.14121555928559947901,0.42632776058584237466,-0.1358721975858442621,1.1912245073041416443,-1.1018288995506262395,-1.1685553168821931624,0.41900789815332661892,-2.7518316281495724951,-1.6228705249929877841,-0.75524184513526060325,-0.10074060655021697952,-0.019323025083182517048,0.91645527016740568893,-1.5989463875769831525,-2.4481078984290323142,-0.22417586495521729661,0.61154228103994467958,3.6918797265385068229,-0.65038833545346286247,-0.00098772645780936417156,-0.058229134179075527078,-0.26178271021872651092,2.7400352655272812719,2.2005660427477757857,0.70952780564290440779,0.3325260984849979784,0.20047233607183187476,2.45576852258760292,0.77251708212321146263,0.1033546060363653013,0.21240970349478066614,-0.55548300990337384775,0.22119800738953346309,1.9497709870722470527,1.6140405265073989316,-1.9425877569251295274,-0.0029475288867727390471,0.28762951485130516804,-0.8144239472450871542,0.91911398730600080142,1.0970757552005361291,-0.50285337381569694681,-0.38928026506092666681,0.45558081225270458114,0.17426543907843602965,0.32218045043911297531,0.39000215138918370439,3.1997377527281534171,1.0670537707338221267,1.2746672034106563132,-0.083548255141461677531,1.5567688453209191923,-2.5998341524899455379,3.3880853697820096926,-2.0737735411649249606,0.83140592483547004488,-1.2374537467087554088,1.6879946559435652365,0.25122178014580315297,0.1108303661326333206,1.3368973922969722423,0.044684829818178235794,1.0485816218682766365,-1.7757503851645357607,-0.98880721242789570979,-4.1406499831764582709,0.071634915504104570982,-2.40781606591694608,-0.86424174363426353729,2.3295019499645284178,1.1676093123367992099,0.44441073255103308304,1.1242712067991451619,-2.7455532825891397763,1.5158437612650070836,0.34379562369196331462,-0.48165280979731345257,-1.924359266156891568,0.4067896432041805399,-0.17469645736168937233,0.70243518974959495704,-0.31088285121613989936,1.5778560439797482129,-2.1375771054871521848,-0.29155609620536487858,0.042132430529889297599,0.38838242942563283577,0.068009938702856723158,-1.0723038336035981555,-0.39502975692291847354,-1.2549603885913591661,-1.6724849974181144052,1.6097765614787313826,-8.1256131659706394288,0.81588901901031429809,0.084777315713292847321,1.9414904494194942242,-1.8189273065260678219,0.41268655835792267261,-0.28570865844403875444,0.47506143404959449983,-0.27318584515496496801,-0.088773164774521018394,-2.7802420193165162665,-0.42120390025950182888,-0.13619982203963537648,-0.092259594063337516112,0.20366697705522160411,-0.40475202635554735631,-0.51346458762836699741,-0.36805795304768063048,-0.26668892882365724528,-0.22271513795188821461,0.33632323766643518193,1.066675995653451281,-2.4441256599446701259,-1.6628200567083717409,-0.34024765309065041485,1.1306339154068296704,0.41350924788515608377,-1.720981660136484237,0.76444569269073459061,1.5506772893522327017,-3.9681292943091541758,-3.6628677013942789742,2.6410508175141775844,1.6167566730525526619,-2.5711685006006748111,1.2146126499885359085,-0.78583297591424994266,1.2350885361222319059,1.5703020231886506419,0.41107652199716038233,-3.3129968754913430296,-0.42217911716024175695,-0.40663752835689304099,0.45642380619770972494,-0.0020527583771941162322,1.5033312278360448921,0.43197977841734913618,3.7787724447367234681,0.11436137003416221858,-0.41202915521545152577,-0.54172415562270348488,-0.58876399714049909573,0.40664048953255904628,-0.3524141106419295677,-0.040282217947809777214,0.46566360872636480828,0.95016380888532836479,-0.28589235245338934233,-0.10668927317159115908,-0.4309103494037249682,-2.5982301819116031538,0.3610068764873421987,0.12110740759018105706,0.806733519209540062,0.076502512456646187822,0.79997267293771701091,-0.26712829990571335115,-1.0949184058852288182,-0.59858294841896231286,-1.875089680736594655,0.28075977077702474194,-0.81964442254808900223,3.111172035601889263,2.2779099006511542846,-0.88202297060633350068,0.95779624642110017252,-2.0667608556968608546,0.27022702072648852045,-1.0803514574459354147,2.1106930193721660238,1.0748043243435179139,-1.4312768223838623349,0.53398821209893398976,0.33141111442311366186,-0.27186703407636858554,0.089224143168493405542,-0.062354554268222769919,-0.2556517166533741614,-0.1984229865080053834,-0.57744514213646924716,-0.065000548153550566366,-0.06076375563170145766,0.5136347397664425829,-0.2451510123761001525,0.0051860443174523672416,1.3982767578145149923,-1.0133564444656133485,-1.4720417534029053286,1.766772257831718429,0.33276968577937260374,1.4825166687559594436,-1.0150091872804953841,1.9101201554541689109,1.43503571983961975,-1.0402294300116161629,0.036775353742377239752,0.13304024943434555883,0.018071099254674850842,0.56892246265463952692,-2.0009068655389903313,-1.5129162648093628096,0.14537808202181229378,0.0071873274090768195926,0.024088257562220175001,0.4724904033615171528,-1.510113264025239932,1.3903409949005474111,0.84958514778194516026,1.0331500888179845354,-1.7526520351228107586,0.8774686215819934576,-0.97664858446909430523,-1.9246188308017750934,0.042869154452740622363,1.6137281852244460545,0.45426581857848219448,0.12189786909866431874,-0.19688104787008731122,-0.69162383137184424431,-1.3487639205240913309,0.81524337429110782516,0.0091858413640333643618,1.2900921365227253634,0.21885372925322787996,-0.088176602009556001582,2.1581603422412087845,0.78368028732668515435,-1.0372054833826773734,1.2130118701435257389,-1.6979248382354026337,-6.1667021055084747516,4.7065124443432884149,-1.1109824400243775155,-0.56370260735508315175,-0.056332826920715874108,-1.2927186993276269522,0.0061235254379707424605,0.018421313824553031679,0.038851332692666253055,-2.6566167908900397698,-1.286591336626229376,-3.1157802672484238293,1.7062862431929994855,0.93946251049936424504,0.31927501701947996748,-1.6658205527938498847,-0.25705459053950752146,0.63457244091523401508,-0.43037701369382802552,-1.7203217460323891874,-1.8513272341898634465,-1.1240936728295984892,-0.19813051494018407706,-0.43111109858503382508,0.67858894680543313527,3.8442754268490002545,2.2166782639956705836,0.68415396202122769065,0.22165071953165757512,-1.6539060428031435723,-1.9712431340464897644,-0.25187068672149959259,0.79683666891375526387,0.051355926479240331106,-0.71315304249065314401,0.48623144839848431165,-0.48864649632632228826,-0.5915970358679883967,-0.13112456367304206606,-0.066474236013933873934,-5.2661537524913812902,-0.70427314852910294363,0.72984178622706186168,-0.13792839552449090434,-0.53641443986395553889,-1.5650764908418306476,1.4888459339217516852,0.12923431294737675046,-0.064665660289827509022,-0.45091306264146580052,-0.54340492141753471422,-0.87570919527500190593,-0.34491685786764353372,0.651569846075600978,1.8984630772232227169,-1.0461953817530964539,0.090820144174078978883,0.78024089621929659799,-1.9081387594079470826,1.9049976351553081777,-2.2843964750350096438,-3.8576340079896729307,2.2677275943665442526,-0.51394742605263987745,0.22531720381334260916,2.1868035441053210732,-0.48286325534786334046,-0.31397626668389255755,-1.3692985270808883946,1.991698829469570331,-0.89990903038715763795,-0.095828733661417239698,1.1741257758123602173,-2.1080888607934005208,-2.3402186627302681288,0.69681023498801852867,-2.173485735258587237,-2.4816386793003215594,-0.8571697324741033297,-3.4605228107093655154,-2.0604075925365390454,-2.0509737375859509179,0.15125830633534531611,0.58530133927392047344,1.4243593283943762895,0.64666026362522455173,2.0810820466149393404,-0.014551043933144928999,-1.9389908554127943674,-0.54794333151419916117,-2.4958083786949449845,1.1014011903114715452,-2.5916052366360640136,-1.9192290470470876329,-1.2721311542826623242,-0.83646490511687898728,-0.11797526630023034977,0.37494494718712384485,-0.64664464730017290339,0.078966872855067760106,-4.2418532478457118273,-1.9835746251685404395,0.84166945431861062143,-0.85444281099959862313,0.067280452863280493236,-0.91563802907388924801,-0.46962750624732502169,2.5179695112484892228,1.9546419139151651745,-0.78342155812223590594,0.98548929825766540258,-0.71243010386148730717,1.896572473178771423,-2.0564932255019550134,0.0031334943582792310589,-0.78575538472492689746,1.2936241165020907484,0.31152998941941378863,0.74771888412598686013,-0.23454769682847945167,1.0879191776652268331,-1.3525360456435266965,-0.51657898580344141504,-0.43144406423768699721,-1.2924011924358882464,-0.76057940593672312968,-2.4970327430032495108,3.1958308677575240075,-1.6376105102597136032,2.1838402834292587329,0.043927051615649505278,2.7394467089763625545,0.12531824209512851254,-0.45059644560140582614,1.6059986888442800979,-0.91882495784442397291,-0.34587111348915533515,0.14023846240893264592,-0.046105280450480512489,-0.35747908386502547096,-1.5002467572571309695,0.72227811911010231238,-0.6863739371992897409,-0.51140368972923933022,1.6274371582099413924,-0.17089234181579862626,-0.03749974453417827952,0.35385755145306690972,0.57875063273498683625,-0.46129018616753747484,3.1775194585771098232,-0.80880000739954172051,1.1441101794506700617,1.1479653878048172722,-0.71762282074954986122,0.81105228543931973118,-0.33062942492834102026,-1.6943981409233066504,1.2086075786936243404,-1.0204289466012159693,3.4593759786286955027,-1.167299379175615659,-0.81538999085673269374,-0.70771064177796283445,0.60288056396754630128,4.8106705245266443427,0.81002263913126271166,-1.4590603689903229867,-2.239889625849031507,-2.8726154721054948382,0.84410476607153817064,-2.3224815470845698862,0.14861403418399032894,1.3716149301984912334,2.0916615813484367159]).reshape(128,10)
        # Layer 2
        b2 = -0.83820453178858156384
        LW2_1 = np.array([-0.0091621928461664906007,0.020499175347955898158,0.0096616313904745697305,0.024580892091189368576,0.022857115239071194163,-0.013468729293060061059,-0.079720816303267480474,-0.032228027956228193218,0.016400477317010039857,-0.036849745109865959802,-0.60594784096158760267,-0.040785858986042415608,0.019910577195972618825,-0.060076182691277318915,-0.15896996316153960693,-0.057629263828014899718,-0.011262588264553967735,-0.002791472742858066864,0.10867157705378170662,-0.0065339922423142682284,0.014629445189452094239,1.2816585198443706251,-0.0040948956879632431027,0.29828436365313265588,-0.0075562643449888526256,0.12043737606262050477,0.010157965662893841952,-0.04991288576453214304,-0.039617257350177223496,-0.014782437252088833149,0.035641574162093514477,-0.11484288921826206475,-0.054326435411080960247,0.012334321589722143167,-0.017853386848455742031,-0.018690859666462396327,0.014648773013650754488,0.012783677933005365909,-0.0080563025384927482164,-0.023481260161486244842,0.023272341510389420172,0.86897420067759478801,0.0068857727622334856041,0.044842473698938789539,-1.267210313249124809,0.01033490887603655782,0.014835707960181406667,0.18629648459971023811,0.0065889182536180024991,0.026308588100060668891,0.0072372837185643631303,-0.0060397543315143346898,-1.2462375342323432914,-0.048619160119071518078,0.10754402083366017273,-0.0054228145434581237483,-0.68903015352513985459,-0.0059032744637894894735,-0.091513165791911169067,-0.012025985223733728913,-0.032920725593600465297,0.028202410973204992961,0.013001527780293394704,0.03407332559405622241,-0.45255814674663635833,-2.9881684393172212033,0.067222884540477242932,0.11017835556751237602,-0.25582008575379439064,-0.019281188729591117875,1.4901364364538045582,-1.5460462574784392675,0.0097478841570756112611,0.078919559994706969808,-0.015193098387734416121,0.019483331601285031748,0.049843726322310273613,0.23327885666762282479,-0.092993509459095152758,0.33039194859745185662,0.0026166532200554070905,0.0046323092555000831491,0.011408249354225659736,-0.015307709556645093807,0.0095261377278500706384,1.7606193719511167295,-0.27378773712848974986,0.025193221597254990274,-0.0022323382722107556163,-0.30008399373934940835,-0.22613011337331861972,-0.0140916093778856652,-0.015301663695830667461,0.003899994273248230843,-0.016238658132168695691,-0.19780846499367146785,-0.01184265481049678187,0.31240155212553438746,-0.043109691587390246148,0.01638037900483213169,-0.036778893719220509539,-0.013918344397690142131,-0.11099920489005339619,0.0033365065712779224706,-0.046439993983029136115,0.69428012030428887247,0.0057891249603868868631,0.40607440718063175789,-0.0099306887629880512269,0.2448928709143096405,-0.95676058943425790204,0.028602841363114746981,-0.028361562717391514132,0.0063768676471979693007,-0.30451192756431183506,-0.017929642383658832977,0.017321225215849417323,0.014939073792498614238,0.030106386733400734845,-0.011926262477143225946,-0.27810398866601121481,-0.084025343574656616297,0.041239049652881776264,0.0065861475740826265837,0.065657334221065899449,0.65603322048251788701,0.011633519710607082009,-0.0052930409717117524529]).T
        # Output 1
        y1_step1_ymin = -1
        y1_step1_gain = 0.00124015625968872
        y1_step1_xoffset = 1025.5

        # Neural network computation
        # MapMinmax Apply
        xp1 = self.mapminmax_apply(x1, x1_step1_xoffset, x1_step1_gain, x1_step1_ymin)
        # Layer 1
        a1 = self.tansig_apply(np.tile(b1, (samples,1)).T + np.dot(IW1_1, xp1))
        # Layer 2
        a2 = np.tile(b2, (samples,1)).T + np.dot(LW2_1, a1)
        # Output
        y1 = self.mapminmax_reverse(a2, y1_step1_xoffset, y1_step1_gain, y1_step1_ymin)

        return y1.T 

    def tcarbn_nngv2ldeo_bro20(self, LONGITUDE, LATITUDE, DPTH, THETA, SAL, NITRAT, PHSPHT, SILCAT, OXY, DATE):
        '''
        Example of use of the neural networks:

        CT_values=Neural_network_object(data_inputs); %This code line must be written in the command window.

        AT_values: row vector with computed values of CT by the neural network used. The size is equal to that of datainputs

        data_inputs: 2D matrix. Size must be 11 rows by n columns. Where n is the number of samples where AT will be computed. Each row is a variable and each column is a sample. The order of the variables has to be the following:

        1: latitude;
        2: clon; 
        3: slon; 
        4: depth; 
        5: potential temperature; 
        6: salinity; 
        7: phosphate; 
        8: nitrate; 
        9: silicate; 
        10: oxygen;
        11: year;

        The units must be: latitude and longitude in [-90º:90º] and [-180º:180º] format; depth in m; potential temperature in ºC; and nutrients and oxygen in umol/kg.
        '''
        LONGITUDE = self.to_numpy_array(LONGITUDE)
        LATITUDE = self.to_numpy_array(LATITUDE)
        DPTH = self.to_numpy_array(DPTH)
        THETA = self.to_numpy_array(THETA)
        SAL = self.to_numpy_array(SAL)
        NITRAT = self.to_numpy_array(NITRAT)
        PHSPHT = self.to_numpy_array(PHSPHT)
        SILCAT = self.to_numpy_array(SILCAT)
        OXY = self.to_numpy_array(OXY)
        DATE = self.to_numpy_array(YEAR)
        YEAR = DATE // 10000 # YYYYMMSS -> YYYY

        cosLON = np.cos(np.deg2rad(LONGITUDE))
        sinLON = np.sin(np.deg2rad(LONGITUDE))

        DPTH = -1 * DPTH

        x1 = np.vstack((LATITUDE, cosLON, sinLON, DPTH, THETA, SAL, PHSPHT, NITRAT, SILCAT, OXY, YEAR))
        samples=x1.shape[1]

        # Input 1
        x1_step1.xoffset = np.array([-78.04,-1,-1,0,-2.174,0.157,-0.0408,-1.0509,-0.404,0,1972])
        x1_step1.gain = np.array([0.0119019281123542,1,1.00000000007615,0.000280151281692114,0.0586751158833539,0.0494364247577615,0.569492297616675,0.0417964970355835,0.00825239113033001,0.00280544255856361,0.0444444444444444]).T
        x1_step1.ymin = -1
        # Layer 1
        b1 = np.array([-2.1252527261525759883,3.1092966685665963666,1.3060207886074797212,-2.7165019535529411066,0.60759363348901829216,-1.5627341971395491971,4.9937177429833328191,0.67977698173057787834,-1.3574652359150749525,1.9785844944637975829,-2.144181103584394954,-1.6905751818394445518,-2.4703035662631571689,-0.74686530615600077443,-2.9057494894511122219,-1.0314343299063326587,1.4723111612217454347,-1.9429014918191787054,4.3093072238893883608,-2.4833153935213125862,1.5854087061222952304,-2.1655829057756084133,-5.11428977417632602,0.19355117372752939087,1.3188710325866241924,-1.1787465516154376211,-2.6881180812494251953,1.9980583867319814395,0.53621349218319724894,-2.1867673394869560077,-0.44865849774609894984,-0.43545650256637907782,1.5887882933752177639,-0.11034169030692531077,2.1929844557820969975,-0.6444412239795707098,0.39085041736286457725,0.59231786211031756118,0.51916266717770997996,-1.0913690119225041286,0.45344237256022146276,1.1011802437616118322,0.04084023850340130074,1.4123393524515885922,1.6914613713597890232,1.3815207138144356414,-0.090091979602473379329,0.66822705540301774452,-0.086217139218544333601,-0.18480735938623613079,-0.30259876863583978768,1.4836396821710544636,-2.1630553805497259034,1.1304185989888897446,-2.2080542550549315806,-0.38127496794433651806,0.2422252711297739336,0.47840469017275977226,-1.0757746782491834914,1.0477049909032847275,0.22192347343409427052,-1.2450928319744090089,-1.9998022256311851486,0.45682868396884396267,0.25520424550341586079,-0.33026156051455357598,0.20746521058048378316,-0.82246038003430610441,0.84582817967930135072,-1.1297281399628604781,-2.2443063623026997533,0.39051944619006895287,0.037595178653926350498,-0.81033549147959205161,-2.1429607266347350247,2.9517794865057846998,-0.65489706028257566039,-2.9919010841150877056,-0.78301343942746426396,-0.14187452535593481073,2.1409448020419459269,1.1018999716007420453,-0.093699289219521433858,-0.4872318495871110211,0.4665310996220059514,0.93890660047109386621,-1.5154885985294443973,-1.6985772619368091352,1.5643686890598380579,1.1225935988497033335,-2.2057531891571473537,-2.2896746133604084505,-1.2432460035814743016,-0.8840982136240385092,-1.4152039022212530295,0.89364277750803733369,1.7891189440135049082,0.63478859886709149141,1.5747773572036181111,0.011798840726792082789,-2.1805751244519990806,0.69772614621349871022,1.5055607595051958558,3.1900387491893855696,-0.83680189892481726677,1.1508105133099066908,-0.9695809343993061491,1.2350807724830079604,1.4267229020289278196,-1.7730556945120721224,-0.43728120747973137084,2.3355754590151978078,-3.0391460823394518265,-0.97412440986327286652,1.8439778500699970376,1.8438857862738136095,2.3918454629927543564,-4.153175583189827158,-3.9217073721257129648,2.6252726368119438938,2.8594387471522013655,2.2976268594624382757,2.4042322630704413555,0.76283066450753156396,-1.9791448729149676566,-2.7861364963154189311,3.2840799012975083748,-0.64366633497280789644]).T
        IW1_1 = np.array([0.14501572113647051565,-0.48197021035985559978,-0.17847521924574144547,-0.35029343600752188559,-4.3187365097422150129,-3.0696659494545657232,-1.6640361848503442133,0.57343692487994191165,0.64042365890577834797,0.98939521761146054235,-0.31786363459948302479,-0.5053307223269531967,0.96884822450370966518,-0.32981441870914668391,-0.34016176624523425387,-0.2339830766530417161,-1.1995123225780632836,-1.0245367161240239717,-0.43334754147364978882,-1.2311764025779265985,1.1165114902488111337,0.6552008911812118308,0.40001127915596651485,-0.22684230066214380872,0.07946406747796030956,-0.10220371064400689265,0.38612786235627982734,-0.47701494205271288696,0.53721289512606085204,-0.1462404328191690972,-0.15482641337880895249,0.23262987324505307596,0.1983923059952604484,0.3338470145912216247,-0.1578821702064428234,-1.0070702106915299101,0.34849243335145241307,-3.3138162239133830411,-2.0588969123832403518,-1.3762207510741277794,-0.040398305715789242787,0.63220869400704526875,0.74630712404316312814,-0.12526271905979824428,-0.80048294843440503943,-0.88776893974812487453,-1.0642563360135928185,-0.32812797287478417951,-0.82791145609915584025,4.0926130427206297568,0.64205778472824504011,-0.089715558356096597459,2.1925678652920130851,0.21599215496147836091,-0.013100553413239285697,0.6377300856100773796,0.1440888088751755558,-0.25082291984468796375,-0.6909574260954881586,2.1224611867557157119,2.0611372816044348788,0.24877724731795275437,0.33900269205206773337,0.45249456813934502142,0.8636648814780018002,0.16540213889461255481,-1.4037718201345332769,-0.62400631388548521983,-0.14167161502483874291,0.55935576357648186807,2.2951370038836533816,1.9740817436135413843,-0.31904441591759730157,1.420020585957800785,1.2180913377557383015,1.2570377709421378665,0.028262520086139563541,-0.047583257816493557124,0.47129662959277235368,-0.39905727201225527079,-0.12139493967429490495,-0.18940741563612548126,-0.30918083526914946768,-0.26124975593120136619,0.57310501105993261195,-0.034995742719822788003,-0.32870025037462574646,-0.070084335623292220996,0.14523655982038535806,-0.29823266862755409834,-0.17933170003241002965,0.5954673530374255952,-0.63282198967231917397,-0.28120484834601972013,1.0247670735722700375,-0.79313041455500854493,-0.97102800491242791114,-1.4025919324397930765,-0.022913163146975959461,-1.3313130568713467117,-0.13109414436423608152,0.13649216998227745035,1.7551332963260792841,-0.36423928369227198676,-0.26684744823312050999,0.48466531313586519447,0.13043666339128648368,0.9708787182195792731,-0.27825945247858385745,0.13637848760826906669,2.3026110564206945241,0.95659301695908127705,1.1453105357444515189,-1.2401268175993112042,0.097168670621231051365,-0.38872181851210763082,-0.89468384840225290144,0.30698612234787736597,0.57731482577862813788,-1.5397128065637615268,-1.6066715828784110531,1.1273667667395421699,-1.2310211505514607744,-0.65213768870163812963,0.044907853115058696258,-0.23072420721047925962,0.41289443489254712416,-1.6621670996254440666,1.3118828861659554974,-0.73645650794357697677,0.21258665491841197137,-0.074175182771702083406,0.68533829675135082837,-0.59612884923870723686,0.73203069385409480496,-0.23875859328484849708,-0.36879897513765247385,2.7126885236864639595,-2.3326721174458739938,0.93023197271506097294,1.2134822389290276234,1.5853995990422062867,-0.048081522055589943909,0.50755219240342741571,0.12388979987624310075,-0.55210471189023191396,-0.33846784051921025016,0.42321351986798949607,-1.1645026042723254367,-0.083241719602801272915,-0.017388403472440118469,0.87905032552870254747,0.65020727054649762877,-0.36167899352757532094,0.86103736982912248976,-0.0082196303440753206576,-0.95587884672501755023,0.041168936492730824617,2.2890294509289774716,-1.32132697113497799,0.41162637184980988003,-1.152127793141723533,-0.37315294667489667946,-0.51783137129761980244,0.011233343066061092161,-0.037328651994995985797,0.61500540979397966268,-0.42661037246241773069,0.020873638501193971656,-0.67440883968213360955,1.5533107481526893245,-0.27142003862090258171,0.30554215988690841543,-0.44445184599155684868,-0.94875861339939981942,0.0023168816059130612796,-1.2631351131230952323,0.50691080202150839984,-2.04185532721048002,-0.80177273050612030136,-1.0824194659116812556,1.6458928116575259892,-0.66596521398224794996,-0.84245982143853326285,-1.1031412972264973416,0.39788584199929744045,1.4747115834096484743,-0.67181535324779595442,-0.6827046864561794326,0.4020420045854736224,0.34615836415378642421,0.42790671189638251892,7.8445915377593458118,0.33490918803754765598,0.60982282402819276701,1.0638831951462575098,0.8224319341247722237,-0.067395288995403479504,-1.2631659106680193094,-0.49902876781415345109,1.9090876206750342359,0.19408170255581913555,2.565770738563476705,1.2803162242166477025,1.8059587285383438271,-0.17624024927377865413,-1.1503827816968341669,-0.16026090038747101141,-0.14124075379593853397,2.9913749089133894188,-0.32214301633809644398,0.57802673978537577604,1.9803547795357567818,3.1355828477977047974,-0.86181989592047947291,1.759374292987134325,-3.3740985301431636323,-0.71898478281111521948,-1.3596297942831292449,0.20386930247794357585,0.18360515712745009709,0.52046709053440431969,-1.7686088500811483204,1.1288843099097682909,-0.23622004915246730405,-0.68369578490993410114,-0.96488252728623458143,-1.3398063608224430876,0.25217453048428201123,0.9081064452692647615,-0.84684036895612646578,0.19529046792604318195,-0.41252389658292998309,1.0338085555461375975,-0.28231767640003629927,-0.91576992537637946779,1.8425010124079337359,-0.49029971927183985114,0.33797678755680232721,0.062838202061542697274,0.19300236798922504322,0.28335414350960580476,-0.084191779335343497337,-0.58456989197146669301,-0.58499612528394540067,0.42801127000764649377,0.25324159323881129113,5.6905697610464267555,-0.22760832063842373341,0.1038774050082657413,0.1524668509200456934,-1.1964343138134259092,-0.080784608028971902072,-0.019445312241117018032,0.36548806982603282423,-0.692560886114765073,-0.52005085720868027277,1.2614728972259698914,-0.60799135562763007012,-0.64263788436995161746,0.49146844109713327953,-2.1101827176672576236,0.88389255727496418569,0.17848047263149680042,-0.66499769289526988736,-0.21627926832336996643,0.43604393810281871779,-0.027690601180532934539,-1.1563327446092181994,-0.38836225175879252047,0.82243208799558464861,0.25008718871011792473,-1.1855296139010689238,-0.1388124382252938771,-0.059219818981524709189,0.067802427642390666884,-0.41769864817728913353,0.94874770156972665358,-0.33169640458614640943,-0.87905561513139052199,0.63313490238394398713,-0.31812356930666918498,-0.09016465007220962613,0.33753073330009519815,0.061007134423445325,0.1219827240831819759,0.81892361033028249206,-1.1975262456742887807,-0.39190263630673527473,0.48955827695642023523,-0.9625147163114453619,0.95220214179472895122,-0.027201909749166700708,0.19076691332095219167,0.28366973941266609982,-0.87162562998579384832,-0.16675513182951587354,-0.60388803397601609202,-0.86303315868594099314,-1.6448942973152904656,0.72791035213601507081,2.1639748559634015557,2.2925545483491576171,1.2578729925489762209,0.60026629098639183724,0.24264545614056562406,0.41708467440292429362,-0.20878493483492510663,-1.0912951928654026634,0.10226421076906296037,0.31304535828145402254,-0.94337290721219535516,-2.1808462220312758717,-1.0482487402575608737,0.60449232975968758552,0.61916158169260970823,-0.6956260663903941488,-1.2551822918768538173,-0.0053096953056879251862,0.57565986063273688611,-0.82113607843407265818,1.535641816336324128,0.22569415286546740118,-0.42856080698676946028,2.3734364836513224262,0.76432819285887643179,-0.82320471185158961003,-1.1998756152907679162,-0.70860462485480391059,0.053116527467722690625,0.90026754622907523284,-0.9395214218912736337,-0.77029694134370108038,0.32157514925688351903,0.81141686570658366762,1.8187432743377458522,-0.59871044721012411927,1.6530682088034200916,-1.0149731952979210714,0.90965048689626559764,0.08358431541787399166,0.038595085521291483399,-0.67095006092519327012,-0.52651195510549486656,-0.21044198671937516809,0.95881807166000432296,-4.0990347629507928318,-1.781062387188089513,1.2963574463620739508,0.21987840119938739658,1.1064131754300470245,2.6971260268028589557,0.20797923467278939258,0.68155088459830059922,1.5232916646923115866,0.62536036300232888951,-1.1789320254576927116,1.8174362793949334627,-0.40405026196620491552,0.13345054503350306518,-1.0999885349433373705,-0.51219176618343909002,0.092953376451753610965,-0.36838521218546171898,-0.41374155381107935447,-1.0952021512413776527,-0.38890586068778904005,0.89732547175565113839,0.67457821056003741678,0.15201320881435281818,-1.5289121513223034032,0.76931531394586183392,2.335844693546174522,-0.24417014894968291916,-1.040662394679838787,-0.37685748136494223726,-0.28271826470442873447,2.3882500639856778513,0.55733262405462868916,-2.2101417555834448336,0.60315999558459409968,1.5665917221976943807,0.31573686192253813676,-2.4742562662634157711,0.19952587941435334651,-0.58336941003989351007,-0.096843652351857212324,0.78301506059805137117,0.22292903256051371796,-0.34383461986207619621,1.2972458865567233488,0.28780399920093607813,-0.27974789053940118944,-0.29824826158283174182,-0.61959178138461268315,-0.11233998431733489831,0.28502179334937260968,-0.27893116766647280125,0.13761884353029801842,-1.6932122347388049999,0.71862211701900668981,0.10286203448563867313,-0.23431143935606796314,-0.5894660201264242394,1.0067823244406872707,1.4107336480884833385,0.019286401011508646358,-0.066068613181488475283,0.41613449323449386297,-0.87662433336078404711,0.44545523077839810355,0.87143650403015660011,0.10324660908310191731,0.38956195480569327794,0.24428482374223023377,-0.48131977948979470794,-0.042603840206495241505,-0.054093567314659203593,-0.36031843768129812045,-0.6189314340803641068,0.68124882463931335508,0.11728672937784780095,-1.417878513651315231,0.98861051884578698967,0.92352461708629152159,-0.53377821136653236245,-1.3842433248427929993,-0.46783427142334949034,0.1170196532256163463,0.22962981058494968956,-0.022061567309703610656,-0.84683157894056215742,-0.13216755588970524604,-0.6004495962156708444,1.9563714373981315742,0.29034777041906734141,-0.15857692408659332384,0.10466393938958562515,0.9843805495931710059,0.075216409242920764799,-1.7194983930058458377,2.8952949296632115583,1.011472780414414574,-0.67737134739519666571,-0.3574353088466261652,-0.71678912324108601251,-0.32531342201753982168,0.36347817849109809174,-0.47937767609497278221,0.99117520097896893994,0.36305231059685988404,-0.55912459008419401751,0.4654680627375714641,0.36244703758975993502,-0.77255863436637561836,-0.39448654815912681526,-1.0392860210130525633,-0.79194430788212288874,-0.17449684773569984486,-0.78658068410680292981,0.027176889555836400425,0.073429051793523450464,-0.040918596713789494312,0.38128815151274497719,-0.69731019421131290592,-0.5452410746927895957,1.4201798883590426303,-0.26285352425948710353,-0.64629179378269885348,0.59237334456030410479,-2.0942346369148880925,0.95815050190466988234,0.16882418870620310991,0.81575327434868349918,0.14079685667173724717,1.1621784594851138905,-0.42221050769993317964,0.37417723158517168791,-2.3383566060995781832,-0.27762408535444682567,0.33549425299860108352,-1.233789203637021048,-0.90349806252434838871,-0.29397384693158751245,0.36563757945537328498,0.55392770047891959351,-0.89696979554451705674,-0.25975365794512583761,-0.17105548527456571062,-2.6187728277782316155,-1.4381135161324962723,0.41487217113101199084,-0.55699887153561189468,-0.94940245275135837222,-0.22046772120592192379,-0.28207350847857698417,1.1850524676553788606,0.02250113800317002366,-1.6205845726697676312,-0.43273490109458645492,-1.5513134551341081213,0.26774798929950321957,0.17518426689069016566,-1.3321660611785184347,-0.31641435272456902572,-0.071483082007166867666,-0.50843849122199635815,-0.68803725426554707134,-1.3147510869420229174,0.2429758223582223764,0.32337013833588712508,0.28986599761102593842,-0.30544577804620509642,0.064334128612778873624,0.50429050570763511718,-0.0040253018647358161652,-0.60574072193759265215,-0.44973081988871438375,0.4266494644197001973,-0.2228305812055443591,0.93532441890332007617,-1.5040274717146553396,-1.1853251816259613438,0.063269598330981377532,0.15654506954188754375,-0.041068716936424838615,-0.58869624258708419529,-0.0014935400827909776477,0.77912955234114411596,0.12086512889679315585,-0.18062265113759420898,-0.41398489679591388146,2.0077179979364858653,0.35320686530870004649,-0.53765638601249743367,0.596684871932645855,0.77490146138815874099,0.80257934748569859096,0.10559221730354596824,1.8205140114990236988,1.5530954067590674317,0.95080581760196369867,0.30480433441881266132,-0.41761238855294224859,-1.3811617085345426759,-0.22981365234505515827,-0.49420189694842275863,0.37845237779616447416,0.13748958207062317305,2.7497472261713111763,0.65988422242899502645,-1.6055847107105665206,-1.5143265961658969321,-0.27857850891986063457,-2.0834169723946449615,-0.77917690820054519296,-1.2948369458000428267,0.65722001599609169986,-0.3952784267734754664,-1.4409572157503289791,-0.083206175020652264895,0.44136240916154417802,0.47561341032275677998,0.13428209046486860867,-0.6754757598381232464,0.34684963194973938982,-1.7739607738699105788,1.0311238410027212531,-1.3269068306474567365,1.23886198256224489,1.0510405991910169998,0.16955294783503863099,0.15076186223267229458,0.25462779850354250177,-0.41873623851004027063,0.040080042072032466549,-0.37788945639004251076,1.6245241419848666098,-1.1348699622840177081,0.27677013717471965482,-0.44024188177602785466,-0.4977984829688643087,-0.059194299475997774751,0.46125934023935244443,0.63364100092615749382,-0.32403510472793578545,0.0072269386329592861379,0.74603959432267452634,-1.0785717721086331977,1.510104243579603267,-0.7813869684281549155,0.096356601962597876465,-0.027146968687784253649,-0.04546943918015595304,-0.27784620023866440919,0.20479795071058878864,0.63282537352420287213,1.2491039491696449559,1.5802586896773462843,1.1508000161300320219,-0.72666964171581560628,0.53658845715539116306,-0.024046754928663243572,-2.5962654608212241136,-0.11622708943170297069,0.1463629499880125806,0.52942157225110519914,-0.95984670177685860182,-0.2962130812757897691,-0.7700255094810837253,-1.1805668671895308552,-0.72138239050737684721,0.18160110066586410138,0.36636396325377823535,0.43730838305436170454,0.11192911244937335524,0.50578270494901511611,0.44052665906701338194,-0.27781305686385920906,-0.097494349910384817126,0.36135250676175884044,-0.030193978008436699045,0.80272990052335324584,-0.45121758231481640111,0.066636782165926625177,0.080240759953065718402,-0.057984270983405097888,0.66421105422982040789,-0.19222187692712019991,-1.060346911902446676,-0.69876845429470135773,0.29021330676848156038,-2.3030659204058587797,-0.23773553471221714473,-0.43497337219786497142,1.9485219720786106645,1.6145239684591916607,-0.82337074551573363745,-0.95753886385716469043,1.0486464576598064635,0.97073170743109127301,-0.41568184765648719114,-0.93088543594741879339,-0.039739810686891884062,0.46138725335171221209,-1.7040353839319595242,0.95017742876549649012,-1.1292165097408637386,-0.095374372136614968265,-1.1711126174723700544,0.090648569351683708217,-0.034467928040696461933,-0.031258570297277125938,1.5704621942048253569,1.8255853092724561026,-0.66571303563311912121,1.340165554789258362,0.37385580092962966692,1.5913020368331265431,-0.031912078425970949458,-1.3558656692696020585,-1.0546818369498300871,1.4965509242807419898,0.32984366085625083098,-1.0904520738832983451,0.32764308185164348064,1.155199470986943977,0.025891781715499492117,0.019760361901227228854,-1.0419675128158578659,2.7265861960978248213,-0.092669648245577426748,0.60102986005741287912,0.025057071053903909319,-0.27694444188212830049,-0.26131609976303343812,1.1918093279641992499,0.80180298866671528835,-1.2580026364851484288,0.92612085052825487974,0.86439210910705244206,-0.10441094873799131038,0.57966097968351337766,-0.48311920027774746256,0.52978951187050493665,-0.45853741760373223357,-0.55203566818160010321,1.4470073789378363749,-2.2898948926370166213,0.88800650063237929199,1.0592607061909151689,1.2988992428153305347,-0.082232118542809665152,0.89705896479197499982,0.42515037468094302175,-0.15944540176677290955,-0.033009287611429384557,1.1079557545378873051,-1.5970761477728558919,0.36208735719488238658,1.5002997805167999079,-1.0479911811408508804,-0.63858116566433220651,0.085496173242645218115,1.0281710591234194396,-0.17768576598105770281,-0.014681201625436358579,-1.5831190493833302568,-0.3618830704115387209,-0.731182287883130555,-0.015335269662652837447,-0.15405083694231608282,-0.93219484084984427508,0.54869661923328916231,-0.056624507750216782065,-0.02430420133833278637,0.051392645975667894387,0.016419106384299598372,0.0048356950479598315162,-0.396532054124546951,0.86447441128674062938,0.27544409678342429704,-0.43994030558628310912,0.07424816932241434797,-0.21065452837139125863,-0.41661089040199184019,-0.27794754881809413671,0.25903450665639082828,-0.11526178275969833908,1.6217930477856159488,-0.76680979351432121405,-0.98725383886362194641,0.14229386141480235284,0.57941701660971967058,-0.94823013851921733597,-1.4297141027378834632,-0.016560568957775162469,0.42340029820273994421,0.28395023973029126507,1.1063891784515729189,0.3402450587125688819,0.19847349845123105072,2.6381910712754117476,0.87178281784095756901,-0.7505627615736510938,-0.59370857547126054676,-0.95805070925166624374,-0.078833239393060750011,-0.19246540768378442299,-0.35627244623572656979,0.52124901479744667476,-0.5730739349338291877,-0.60038018753132860184,-2.2180897630266493969,-1.3715775849063043257,-0.70596362951213809112,-0.30439422595224013834,-0.2498497672784755208,-0.42105759575008611106,0.64106386568013307148,-0.054488347920583934947,1.4654593863266867082,0.17185641104804122437,-1.4828446792583904745,2.1345736193162685446,0.02926847536785218834,-0.57455970542711409799,0.90584480941061862325,1.1807459610045152321,-0.71102769975967827776,-1.0298492304344686321,0.017961699892803911771,0.27271493853417932973,0.45408708241729073274,-1.7112826675586545466,0.41652325878556961669,0.36335550967443935866,1.2265948356479869918,0.60404054880511093284,-0.16698515861084256562,-0.059539954483457398215,-0.7536831960474466019,0.609840652500244218,-0.99920128367809979419,-0.58992629906589244548,-0.81364609110083263577,-2.6439173444698775839,-1.2342536214896411284,-1.1551172146407890917,0.9514638363358201012,1.3914466959679172575,-0.18155756207097376032,0.4936841532931852683,0.17054921809687698109,0.52952259344981811306,0.46066487547861378893,-0.79459993554525876203,-1.8213877857600360155,-0.21332646415165784637,0.56119812515054556812,-0.62077129613458414958,-1.3177510738814692814,0.019983965305488019665,-0.20692735963286321144,0.60529632319617787672,0.037434093553340853922,-0.18472347056106622198,0.3476423021173374317,1.3309519139338170657,1.2974125190020782128,-0.76250969635373455624,0.80039895877625377718,1.3920947414539168729,-0.089819091969804240594,-0.1275038728131100696,-0.79123899065442127032,-0.03045765594382818589,0.50951663546800607385,0.083343040238553725563,3.5753336184475004167,-0.38839821788445577644,1.3684738987301436897,-1.3581697671517405368,-0.40793908184859511978,-0.0074437705080790074127,2.3126154050258165285,-0.046948766149088702604,0.039000524539291300807,0.71911295478452108565,-2.4649702064394714007,-0.90247605967584010322,-0.1996672769109434642,-0.9499460994069087727,1.8315741681417920805,-2.1963047286805084113,-0.030888435663577323842,0.14493525589953423771,0.072362624963963936842,-0.073349928070487416254,-0.070302467255879894092,-0.53825208706065508224,1.487621443064705451,0.20613440734561069845,-0.67979459073792336543,0.26781075525395975356,-0.098652385133938161332,-0.39564693423193680877,0.10375447557591510606,-0.65397876716376546202,-0.50909285651376268156,0.053645388849478274629,-1.3658308909172989232,1.0654375719742774642,-0.61838360526872038214,-0.61603984430167957331,0.025678096223466981979,-1.7245183302141016135,-0.15195264666389826647,-0.13833050365072413479,-0.79955089377013921492,0.14750465765372214322,-0.58416760760723529522,-1.46173866268829733,-1.7413550778204787139,1.1639526335652286004,0.019187570748815434285,-0.98809973165655484717,-0.23140006074045471607,-1.2511358665008134317,-0.099240909557914980255,-0.27466909479663986771,-0.51569770582486940125,-0.43764046417096463815,0.020300815185437248722,-0.32944259776328171929,-1.0774166815999079994,-0.15421814964210386889,0.96867089398381767129,1.0812524592275263302,-0.22275372170387339188,-1.3661889797623902876,0.03060769299092820292,0.2734546447078629039,0.037755615901127609346,-2.0520565856359449519,0.28960872473874321731,1.5613983661877202103,0.4632648263296613167,-0.89691780251852060157,-0.78760186381314678528,-0.083643253441622739119,0.15565845870370101367,-0.20222704441664005048,0.40879747360202844941,-1.2021359236367721302,1.2728373299726538637,0.28254512904976025744,0.29763821530738637788,-0.35747819333521790863,0.77134147306478373363,0.25500267400920306748,0.17732587920591313946,-1.7615146149747638038,0.17929959159760008869,-0.4289268938506810569,0.56109046267204665259,0.44446787567078543946,0.12271267938506978668,0.18257354295792102561,0.33677352855309478086,0.10922255049865521592,-0.50552981268836338913,-0.014044311065627233109,-0.94883990518077931942,0.9227238874168911531,-2.2799641467206241963,-1.1248926827521139593,3.2094505769478383073,5.6592853957784461372,-1.4794715068619821441,0.8513204395604614394,0.54819814560163804273,-1.8739997692257792661,0.0092038739726410020298,-0.39450764823432477035,-0.66163058896060611414,-0.79140495529212162573,-0.1289208861323605515,-0.63240468769668845006,1.5597338829088556178,1.1452598836028229368,-0.34322484530815111636,0.54767366551048346501,-0.58572199080622844303,0.029043450585821528609,-0.36392672754326954587,1.0310729094502402159,0.36446233504917446844,-1.8361745794037034329,-2.466059638684141575,0.31119227328935916699,1.5431022994106438073,0.79151696914709213093,-0.72903287277814310396,-0.31534116325532424163,-0.062566242660461152125,1.6028699461487325717,1.3213383272498062659,0.74190105073223566734,0.23458883630750240745,-0.49791586532212539495,0.35149038435626833721,-0.31681836875111946128,-0.21586341492374924722,0.29854456323507705395,0.068109162833580053076,2.4977454680367237039,-1.2991391729098644703,0.58529023308801619851,-0.76171601155784529613,0.75397026106290054859,1.7980197658041860986,-0.64330263119767416846,-0.14707456953866809846,-0.77311957402495756764,1.7967570374668859756,-0.064522274764208867315,-1.1480933657966982953,0.30501631790269906341,-0.59448255363491919745,0.3721625656640852875,-0.44090692971807904366,0.7422904155465033238,-2.8933150385030077523,0.32999926403312979106,-0.4299030334754356808,0.59372925688160338442,1.0090157434554334337,-0.012310654541836513892,-0.21293003669791155108,0.012726997630551597357,0.86401005507847039588,0.071783064617305450406,0.44792423320647217766,-2.0453380853836549136,-0.31596222360472914215,0.1241563880290904448,-0.11668156774755965299,-0.89786311376501848347,-0.080131519295434092132,0.23998587691624215235,-0.23118334805200688176,0.10907851647739842671,0.011178688623854996301,0.27728060725162179123,-0.89960030871267282482,0.45161528352867780223,-0.26185119952543772781,-0.42164006722849273201,-0.34452555302928067338,-2.7312541518439972243,-0.041256215011502596346,1.7293967127929348315,0.15381526824662744568,-0.54486102136932090811,-0.48057193032647665953,0.099237379164281200317,-1.4448118197464638879,-0.51882793038984509337,1.2900502100626081159,-0.85196407690829289994,0.081241082838205358474,-0.37557666529926375665,-0.1899569038880097871,0.52951939298187788996,0.14251153761666937592,-0.49177720560403859196,0.18712725156751311428,0.15803504263768186622,-0.051751562856703473003,-0.29058538640965586586,-0.52942834865133459044,-0.10994897744680122431,-0.67173536026123359388,0.18482150968544036607,0.063464370680867424057,0.189803977648772354,-0.33581388231288822332,0.71178804734852252345,0.5401313641376808139,-0.084488920975929901469,-0.039516223126088975692,-0.3851041969366508777,0.014407229375487683176,-0.66085441721088733491,0.16592717817388355495,0.085528652760120421616,0.16338903774360602483,-0.98344066950380237824,1.9864238880455693526,-0.71653798992821238212,1.3219209283069930372,-0.41416698151833408748,2.5639627296068896456,-0.012462644101218478196,1.3826206556897733257,-1.2213198934599671652,-0.55422977990674238136,0.11368832050791351229,-0.49171662126808574067,-4.1777337468055826264,-0.17282344516188341554,-0.20661952707113595551,-0.76060441445380244652,0.47515984246528819579,0.10913760057937975378,0.9553815078741115796,-0.11795373188363260375,-0.37505142037072164429,-0.013504263856104014793,0.86577565677334455962,0.23607890197430556056,0.011639534884364172163,0.40530203272871734299,0.31166310496248833539,0.79806999166296033188,-0.19996136030197650402,0.67350023481083243215,-0.68246882322599489168,0.47452530100013590175,-0.11672411227492673902,-0.76930718276494103325,-1.2250377843391986321,-0.087330586150725295069,-0.15156677105580046439,0.20129856709773996659,1.0121665979500873433,-0.038822248355303304312,0.6517469278767338281,0.39788268200614262948,-0.6849000654046398795,0.89260213977588209744,0.48368602817944372774,-1.6972117095009797705,0.31888047554694881613,1.3083575662852189314,0.039425452039419627004,-0.77234093097464329158,0.11166130118847937547,0.68581103250767116997,0.2051406932218977075,0.24419661962172495295,0.41250429649292108536,-0.1637674707388780404,1.6052926301899175243,0.57790838694866419889,0.10643133723659647938,-0.98389345416470763706,-0.46175506702200513898,-0.035557016063008407836,-1.033678434367334642,-0.043445366702295762362,-0.19313938950884321222,0.13297830848196251496,0.64547898024658745264,3.1477664990084375241,-0.29212894542642359186,0.73591401974642622896,-0.21457307740656189621,0.94697635105286259716,-0.10630376334271363081,1.1693226165482266676,-0.15487272516730010707,0.86050793585856510948,-0.089333969597016435471,0.2303978419212169837,-0.081367792009546621723,-1.8423949920051514439,0.63258463888134153219,0.88941711262177147734,0.36539118969670764114,-0.061276256641174385587,0.9322146524267909129,-0.48451329796601444455,-0.37294248393238338402,-0.32987181997822118129,-0.43131252232837608007,-1.3966184449295424574,-1.259307939727664083,0.085754479776869382834,0.28320833836469561096,0.52372887952693636393,0.01296624636834214396,-0.65014300999733831699,0.64103136977629793236,-0.84497326053565058324,0.1032291469758186836,0.34413305444453606841,-3.6718352888129008882,2.1805392644638756927,-0.88450820691491249814,-1.0329703832727292756,-1.5328966034444135857,-0.001158399842901941014,0.015579646700718785893,0.72251299618865327812,-0.20493566868131435355,0.53176991517802318921,0.16319135348007293707,0.14408007438793141164,1.4891623777879734458,0.45976717547247059059,-1.711469371018311536,-0.47926668484692630523,0.13798656642837189845,0.96540409077288646955,0.23930595580116653665,0.33124033828959736914,0.3579422516979919866,-0.92294403536650138076,-0.56028778237713727783,-0.35838436968482872969,-0.22338992341722108126,0.66189869279169022409,0.57066013205972432321,2.319578732952244593,0.31564851921090730791,-0.4793052422745954777,0.3466636588052128265,-0.84096841880716599604,-0.072605193115729591002,-1.4751753014878961068,-0.016647581659814125049,-1.9742520714231148737,0.97380862877533569399,1.4853676136026887633,0.063490340262708624963,0.89384109214586615622,-0.45066786731688052159,-0.40732324956536408722,-0.34630440564531550507,-0.76429967520934827263,-1.2926365259969927468,-1.2047287329662592636,-0.028563986478985732564,0.3031355025511906498,0.38268105091128390427,0.017671146699510500294,0.49914304437799150715,0.73176094302908600842,1.518877435434260903,1.6234647078113904062,0.24480623433927597987,4.7566027689161325398,3.0885936207964430622,1.2486981719041654326,-1.8257882858130387582,-2.264306902909372532,0.5074109294303120743,-0.59190318982500689238,1.0594668911284164103,-0.43540342299756429334,0.24185623370147343869,-1.686616672507746495,1.2822112712457309769,0.59349063460582796026,-0.21972254698754517532,0.99166147752442768137,0.5680296683290870785,-0.025157351866801801882,0.88659597860509986589,0.2586476028609586697,-0.072569828664448055022,-0.22629632129416335506,0.20817794718735799231,3.4722125888890857937,1.3285862356554387631,-1.1455487378584781055,0.12108164032295930246,0.44146700162035412696,-0.16937485950919231592,0.27491630170248382292,-0.23412680656140152924,0.4335204139067238005,0.71450988649378321949,0.5537749534607996349,1.5553473548394332049,1.1324011776054505596,0.70267317934089823517,-0.70668251459581254981,-0.5999396638601869336,0.13128528626277724545,-1.2811763193761782631,1.1117638207251792082,0.5399602481624489192,-0.54481114643436912015,-0.84915073423196696378,0.56424722400481341911,1.2678350693450188835,0.15083316732486753975,-1.8439279051459418479,-0.94186511594337174458,0.17993317419048990291,-1.2471429453180313818,-1.2155871678270127045,0.3653821410621505561,-0.70152194530736922129,-0.79182786326231824336,-0.41709782245209769957,-2.2411452096570325665,-0.26701056450180832291,0.99199251205395311271,-0.13445337070728480278,-0.18455586437185367288,-0.072497252936177800087,-0.52105911255256054382,-1.2439339102549460403,-0.0021391331123314693066,1.6039821361210062634,1.0802092795279534254,1.056105394909875983,0.48159813124325923095,-2.1091768093794049932,0.049113435092525394021,0.12491085100942077302,1.4974527988226764563,0.071589216289371274127,0.12079659575100475111,0.33032637045518947749,0.90977132278785832753,-1.1798902075527204492,0.96991727456795451268,0.45230094497795247932,-0.24289129314546634153,-0.31076416013374941194,0.052787054361092475285,1.0194468522391035847,0.0048711045028987220301,-0.056068828533438398731,0.19519401826896087826,1.4395923899275868685,-1.751733735801500158,-0.23778631327031055087,0.16846751974425483445,-0.054565719365291275034,0.9907042070917632115,0.010325259299978628569,-1.2856539895190526313,2.3408646595087070352,0.68025362173266645804,1.027421634172142495,0.60077621290791793918,-1.1385701584224861005,1.545128240325574831,0.68188211295927447786,1.0666816892895627511,-1.5061656285539199995,-0.36049417460340255071,-3.5314399678044781083,0.34055548037171007314,0.81353210492721694802,-0.41326724475241860546,0.82546704851510555034,-1.6407942589461295135,0.60832474703477235067,-0.768390957442471767,-3.7825245949542991575,-2.1632488774416822608,0.27055546862102453076,-0.7385067194869410212,0.364091908554683652,0.20360976748001236025,-0.33571629674067299254,0.96008487887719851095,-1.2950860224868967485,-0.74872747648157189637,0.78074550427859779056,0.72390103880976508499,1.3016210397566647661,-0.047061774826344437983,-0.13829827413705075845,-0.069848189446124045454,0.45633511086840500282,0.066463981158216889344,0.098743902258867657928,0.46290246081300923109,-0.46345689907572601429,-0.68403137985165562984,-0.70802053336882420087,1.1919420137233482926,1.1452159405235189382,0.13124436017991641945,-0.38129674852644424021,0.22634432184023609014,0.016188799997095014438,0.077374909831146712613,-1.0665092145016108471,0.36890136064888745526,-0.38764379151529892997,0.23096689930196848128,0.23327711874177925466,-0.95366504082844349988,2.1860175150546581335,-0.034682736524635340847,0.036113942302829583897,0.84943764519964626292,-2.2262894069958818477,-0.43762015656180847101,0.09307968691281955087,-0.84151233193155983159,1.3639146872970400182,-2.2176643017143939929,-0.019810439774343643893,-0.69326107355869936999,-0.39941751258742191899,-0.24450077859865285146,0.50583083292152752897,-0.21096523294943356208,-0.86287865878638836392,-0.77816056711963876857,0.99444022047981217582,-0.87178345981036575729,-0.57955697668950467705,-0.13878863199326957334,-0.27846619625011931332,0.43680499426641467009,1.1296531158032099285,0.044958254572116433667,-0.29122865097372746535,0.95339215766733254043,-0.70060616246297924281,0.78435208619576801681,-0.62701444778009596259,-0.15803125304857204569,0.36028441518654996667,-3.3863854135331714623,-0.50709883405695743708,0.17401663829086769231,3.2164809495695427799,0.62919373276638734804,-0.15380554665483570087,-1.3764445476780782229,-0.91637530022618518544,-2.8531003757701953738,-1.8270197533888743457,-0.21568415579045299713,0.76882423914906761198,-0.015188057207016218003,1.0956006076302688967,0.37567153595743707495,-0.85777558266356479511,-2.1747654272600600578,0.69130413476399377171,-0.016477234420214953436,-2.1925938715029555937,-0.20287199851687684471,-0.13414829923999391226,0.76397108810188596451,0.049194278853531149542,0.51728779802884161665,0.092833854024887196843,0.071787328958973189996,2.5785992007019484795,1.0203011884982255975,-0.82495623688413510788,-0.37226198250289366243,-0.19691610770746598158,-0.063197796700361033584]).reshape(128,11)
        # Layer 2
        b2 = -0.52151052815723719647
        LW2_1 = np.array([-0.078243434489302460255,0.010756062811666281323,0.62340268688166100564,0.31086729251460765155,0.16209718930597666331,0.23240337543751715677,0.22430454495374624324,0.84088045192694826913,-0.26102250316860409196,0.046960270703579207185,-0.0048162173103385146761,-0.084547819438247517887,-1.3845182051411466517,2.7926443467356172334,-0.15906602734491562257,-1.0926737260142036501,0.013017903347213080276,-0.14220855188103517786,0.24052620634300250768,0.040150589790472319962,-0.0062165519908779906175,0.34358103552260893521,-0.13908796704792697474,0.33425887787525887518,-0.670283464132415574,-1.3085974035125995663,-0.10505018165974021327,0.033154733378952729039,0.11956062200971648291,-0.061669932795610941934,-0.19301899570033770326,0.033692437319188590916,0.94405710139789988933,-0.033304103931598452726,0.0069702243261742704433,0.47745873363957824775,-1.0735303748071818308,-0.99033534795599120759,0.74616640993516714087,-1.2153122945416336975,0.013111146008930558288,-0.090509165600439422938,-0.33104610934143335887,-0.02707685756229419316,-0.073426255749978630583,0.023830242160432682508,0.023330671841937163091,0.24706486537025224015,-0.37787971982007678706,-0.030507074805150233288,0.017913153509788906637,0.36092648417796235893,-0.25666109208389586982,-0.36145835006077470242,0.10525753657694805754,-0.24520512131114122201,1.2362531457182306394,-0.20901552313258422999,-0.13604413153297115202,0.25720473689971040665,0.0043578982411472599531,0.6476684405307046033,0.83502986659727729268,-0.032878169683407378054,-0.035119808777324068583,-1.5350500550050325543,-1.2497818891467231683,0.36904788671238714093,0.038553529755128185252,-0.012266731821470488323,0.044670739578822331317,-0.034352388254429599979,0.23688813493540855637,-0.41220892329855479685,0.34445971956690363269,-0.43569229993408697954,0.91570121989191111123,0.23241042147941737284,-0.0055466611393759999299,0.31289184816210047213,0.27126417495986293593,-0.089208115052787279042,0.079430524658982676334,0.017480148439379134678,-0.29253128132722966415,-0.055881227046016321292,0.03927615963763967516,0.069653906765093018261,-0.65510789407093772407,-1.2139295815484552055,-0.037124668395227398976,0.088100274692957919465,0.94526294201034877229,-1.4561625962513249366,-0.040902895898860244794,0.076326434701692091878,-0.31354157749042055325,-0.18294371300324069329,0.048215606073006594956,1.1248028398303355768,0.33726217607812808419,-0.068723900618082062186,-0.75665296637846168881,-0.81290580145900270814,0.067337349537343840766,0.0079564608652163883867,0.082072865820534871006,0.73420015951158457135,-0.11477018042131566233,0.065392071638870868933,0.67631968745358084227,1.6992127939873900022,0.021287305372016090965,0.037192446947537441404,-0.10732191884380450075,0.089485111255061561275,-0.25551528923928357173,-0.052343195950010107387,0.010870917734537353591,-0.39413421398791853578,0.046682083620251703382,0.15563468194923013588,0.49973856863959731367,0.4473910613951285753,-0.11525780741329090529,0.013583204879204648086,-0.25939646018038636788,-1.3862673438191999153]).T
        # Output 1
        y1_step1.ymin = -1
        y1_step1.gain = 0.00101409593347531
        y1_step1.xoffset = 679

        # Neural network computation
        # MapMinmax Apply
        xp1 = self.mapminmax_apply(x1, x1_step1_xoffset, x1_step1_gain, x1_step1_ymin)
        # Layer 1
        a1 = self.tansig_apply(np.tile(b1, (samples,1)).T + np.dot(IW1_1, xp1))
        # Layer 2
        a2 = np.tile(b2, (samples,1)).T + np.dot(LW2_1, a1)
        # Output
        y1 = self.mapminmax_reverse(a2, y1_step1_xoffset, y1_step1_gain, y1_step1_ymin)

        return y1.T 